7.637882977724075317e-02,1.804244369268417358e-01,7.638113945722579956e-02,1.314368695020675659e-01,-1.572053134441375732e-02,-2.830012142658233643e-02,-1.911771148443222046e-01,-7.853556424379348755e-02,2.002888731658458710e-02,1.722133457660675049e-01
-6.104405224323272705e-02,-1.405184119939804077e-01,-7.323006540536880493e-02,-7.201788574457168579e-02,-5.132897198200225830e-02,-6.558451056480407715e-02,-8.129926398396492004e-03,1.537318080663681030e-01,-1.093121096491813660e-01,1.079128608107566833e-01
-3.261527046561241150e-02,-6.848888844251632690e-02,-5.210917443037033081e-03,-1.191096901893615723e-01,-3.963631391525268555e-02,-3.700460493564605713e-02,-1.462620049715042114e-01,5.716091021895408630e-02,3.963149338960647583e-02,1.175835654139518738e-01
8.683524280786514282e-02,1.670302003622055054e-01,-6.615369021892547607e-02,6.327302753925323486e-02,-5.531690642237663269e-02,-1.155885159969329834e-01,-4.579885676503181458e-02,-4.580968245863914490e-02,-5.424591898918151855e-02,9.962178021669387817e-02
-1.186751499772071838e-01,-2.382083423435688019e-02,-7.389707863330841064e-02,-5.402923002839088440e-02,9.157366305589675903e-02,5.412274226546287537e-02,-3.457345883361995220e-04,7.558221369981765747e-02,4.830408841371536255e-02,-1.692575663328170776e-01
6.441684812307357788e-02,1.800148189067840576e-01,-1.450195908546447754e-01,-8.795101940631866455e-02,1.255919225513935089e-02,5.369775742292404175e-02,-1.158385053277015686e-01,-1.576445251703262329e-02,-5.218207463622093201e-02,1.009878590703010559e-01
1.024143211543560028e-02,1.609591096639633179e-01,1.767417192459106445e-01,-1.132934615015983582e-01,-7.036079186946153641e-03,2.947006002068519592e-02,1.871974579989910126e-02,-1.702914573252201080e-02,1.578537970781326294e-01,-1.969458013772964478e-01
-1.133151352405548096e-01,1.010611206293106079e-01,-4.105289280414581299e-02,-1.005929335951805115e-02,5.348070524632930756e-03,4.938904196023941040e-02,4.755553975701332092e-02,1.235002651810646057e-01,-7.118452340364456177e-02,-2.100944966077804565e-01
-6.431259959936141968e-02,7.345794886350631714e-02,-9.081182628870010376e-02,1.099371388554573059e-01,6.783684343099594116e-02,6.331704556941986084e-02,1.091703325510025024e-01,-1.060232743620872498e-01,-2.590358443558216095e-02,-1.165275201201438904e-01
-4.475536290556192398e-03,-2.001311480998992920e-01,-1.976944319903850555e-02,-6.521017104387283325e-02,-1.560392528772354126e-01,1.061885207891464233e-01,2.749356906861066818e-03,-4.879598692059516907e-02,-3.863097354769706726e-02,-1.126226596534252167e-02
9.195946902036666870e-02,-1.229952126741409302e-01,3.747605904936790466e-02,9.565345942974090576e-03,7.324781268835067749e-02,-4.639350995421409607e-02,-8.318259567022323608e-02,9.196075797080993652e-02,1.535246223211288452e-01,3.814153373241424561e-02
-6.967131048440933228e-02,-9.757744520902633667e-02,-4.347282648086547852e-02,9.721693396568298340e-02,7.217697799205780029e-02,6.458967924118041992e-02,8.060214668512344360e-02,-1.445510834455490112e-01,-1.597158163785934448e-01,7.360713183879852295e-02
-4.649443179368972778e-02,-1.138508692383766174e-01,1.694652289152145386e-01,-1.031595095992088318e-01,-5.490617081522941589e-02,5.457699671387672424e-02,9.236725419759750366e-02,-1.180430278182029724e-01,-5.175156146287918091e-02,-1.910109817981719971e-01
4.927087947726249695e-02,-4.147874936461448669e-02,8.995068073272705078e-02,4.823910444974899292e-02,-5.552620161324739456e-03,-3.137810155749320984e-02,-1.470042113214731216e-02,-3.148819133639335632e-02,1.167073771357536316e-01,1.319139730185270309e-02
4.379879310727119446e-02,1.197524443268775940e-01,1.038325205445289612e-01,-6.599973142147064209e-02,-9.530030936002731323e-02,1.081881672143936157e-01,-1.203801203519105911e-02,1.113870963454246521e-01,8.554225787520408630e-03,-8.112295717000961304e-02
2.287507988512516022e-02,1.684632003307342529e-01,4.620414972305297852e-02,2.123772725462913513e-02,1.747103594243526459e-02,2.758475311566144228e-04,9.846883267164230347e-02,-9.649302065372467041e-02,7.650705520063638687e-03,-8.887226879596710205e-02
4.785223305225372314e-02,-9.128980338573455811e-02,-8.451654016971588135e-02,1.092143207788467407e-01,-8.192302659153938293e-03,-1.186753530055284500e-02,-6.964432448148727417e-02,-9.758780896663665771e-02,-9.534368664026260376e-02,-5.111277848482131958e-02
-6.359478086233139038e-02,1.532797515392303467e-01,-4.449325427412986755e-02,-1.291601359844207764e-01,4.904454946517944336e-02,-1.381669640541076660e-01,7.563430070877075195e-02,1.678064316511154175e-01,1.333987712860107422e-02,-8.185027539730072021e-02
1.227538436651229858e-01,-4.946480318903923035e-02,1.775303632020950317e-01,1.488986462354660034e-01,-1.311000883579254150e-01,1.473129242658615112e-01,-1.687854975461959839e-01,6.595378369092941284e-02,7.742049172520637512e-03,-1.474005430936813354e-01
2.579423971474170685e-02,6.427074223756790161e-02,1.238650083541870117e-01,7.768042385578155518e-02,-2.812960557639598846e-02,-4.793072864413261414e-02,1.316299103200435638e-02,-7.791762053966522217e-02,-4.911884665489196777e-02,1.176693812012672424e-01
-1.496794447302818298e-02,5.248924344778060913e-02,8.706186711788177490e-02,-9.102774783968925476e-03,-6.482527591288089752e-03,-2.472804114222526550e-02,1.511818468570709229e-01,-1.193568706512451172e-01,6.442000716924667358e-02,-1.305046770721673965e-02
1.371545195579528809e-01,1.497894376516342163e-01,-5.863397195935249329e-02,1.056673526763916016e-01,1.571835577487945557e-01,1.564570069313049316e-01,1.177226305007934570e-01,1.636023968458175659e-01,-4.548851400613784790e-02,-5.612415820360183716e-02
-1.293960362672805786e-01,-1.386967748403549194e-01,-8.278083801269531250e-02,-9.991633147001266479e-02,1.309775114059448242e-01,1.288822144269943237e-01,-7.387762516736984253e-02,5.895684286952018738e-02,8.437088876962661743e-02,1.596497930586338043e-02
1.092444639652967453e-02,2.017562650144100189e-02,1.361578255891799927e-01,-1.685889214277267456e-01,-3.545190766453742981e-02,3.111702390015125275e-03,1.195590570569038391e-01,-1.590076982975006104e-01,3.946230188012123108e-02,-5.224510654807090759e-02
8.571783453226089478e-02,-8.456605672836303711e-02,-1.063782349228858948e-01,1.430589109659194946e-01,-9.293224662542343140e-02,8.249301463365554810e-02,1.561107113957405090e-02,-4.570402950048446655e-02,-5.695328488945960999e-02,8.381859958171844482e-02
-2.863105153664946556e-03,-1.469448953866958618e-01,7.054638862609863281e-02,-1.443114690482616425e-02,-4.149144049733877182e-03,3.699610009789466858e-02,-9.489437192678451538e-02,-1.270513609051704407e-02,-8.419109135866165161e-02,1.066891849040985107e-02
3.418552130460739136e-02,-5.761079490184783936e-02,-9.091861546039581299e-02,-2.850191900506615639e-03,-6.500885635614395142e-02,-1.378242224454879761e-01,2.076770924031734467e-02,1.066043749451637268e-01,-5.286308005452156067e-02,-1.264651268720626831e-01
2.555165067315101624e-02,-1.360188871622085571e-01,-2.409280510619282722e-03,-6.220506131649017334e-02,-8.789401501417160034e-02,-2.356516383588314056e-02,-1.945089024957269430e-04,-1.047513540834188461e-02,1.197026148438453674e-01,4.498761519789695740e-02
9.929907321929931641e-02,4.803532361984252930e-02,5.508101731538772583e-02,1.137061323970556259e-02,-5.746712908148765564e-02,-9.155711531639099121e-02,-5.064908415079116821e-02,2.982137538492679596e-02,-6.240680068731307983e-02,-3.868999332189559937e-02
9.899761527776718140e-02,-1.208842545747756958e-01,-2.207165583968162537e-03,7.627179473638534546e-02,6.896899640560150146e-02,-6.811019033193588257e-02,-1.005717813968658447e-01,-1.570429839193820953e-02,1.120463907718658447e-01,1.651322692632675171e-01
-6.908771395683288574e-02,1.852563954889774323e-02,1.180078834295272827e-01,4.684764146804809570e-02,-5.573298782110214233e-02,1.534306630492210388e-02,-1.337180584669113159e-01,-1.384843140840530396e-01,8.881550282239913940e-03,1.235773265361785889e-01
9.003864228725433350e-02,-7.351660635322332382e-03,6.886094808578491211e-02,1.307318918406963348e-02,8.691380918025970459e-02,7.224999368190765381e-02,-3.657709062099456787e-02,7.233233191072940826e-03,4.469808936119079590e-02,-1.042786017060279846e-01
-3.550097346305847168e-02,1.356551945209503174e-01,-5.433244630694389343e-02,-9.616251103579998016e-03,1.711793690919876099e-01,-1.749342381954193115e-01,-9.489906579256057739e-02,7.763469219207763672e-02,-3.969509899616241455e-02,-8.251139521598815918e-02
1.038799360394477844e-01,1.576905883848667145e-02,2.238641865551471710e-02,3.449792740866541862e-03,6.062300875782966614e-02,-1.688774675130844116e-03,1.913621276617050171e-02,1.501884162425994873e-01,-6.879437714815139771e-03,-4.589900001883506775e-02
1.618218123912811279e-01,-1.557962000370025635e-01,-4.956785216927528381e-02,1.697289524599909782e-03,1.041860654950141907e-01,1.275985836982727051e-01,-1.341836601495742798e-01,-1.176313534379005432e-01,1.765263616107404232e-03,1.752711236476898193e-01
4.287907853722572327e-02,1.748718917369842529e-01,-9.590037912130355835e-02,-2.730307541787624359e-02,4.235657677054405212e-02,-2.176750749349594116e-01,1.440554410219192505e-01,2.567561157047748566e-02,-1.151251867413520813e-01,1.579497903585433960e-01
-4.411137197166681290e-03,-5.792407691478729248e-02,1.182365790009498596e-01,4.463358968496322632e-02,1.011256352066993713e-01,1.302617639303207397e-01,3.237006254494190216e-03,-6.539758294820785522e-02,2.806337177753448486e-02,1.617935448884963989e-01
-4.081965237855911255e-02,-1.273329555988311768e-01,8.953231573104858398e-02,1.222145184874534607e-02,-4.514491558074951172e-02,-7.829774171113967896e-02,-1.784083619713783264e-02,-8.431145548820495605e-02,7.463022321462631226e-02,-8.058708906173706055e-02
-1.466901898384094238e-01,-1.781478673219680786e-01,1.271552890539169312e-01,5.762594938278198242e-02,7.957360893487930298e-02,9.883555024862289429e-02,-5.482600256800651550e-02,7.914489507675170898e-02,7.381542026996612549e-02,-1.648794263601303101e-01
9.916408360004425049e-02,5.773266777396202087e-02,8.040736615657806396e-02,5.199515074491500854e-02,-6.568799726665019989e-03,2.959203906357288361e-02,-6.958201527595520020e-02,-1.708566099405288696e-01,-2.539931610226631165e-02,-1.074184253811836243e-01
-8.678859472274780273e-02,-1.103635057806968689e-01,-4.757026955485343933e-02,3.609482944011688232e-02,1.393296122550964355e-01,1.478063017129898071e-01,-6.369828432798385620e-02,-6.537940353155136108e-02,8.055330067873001099e-02,-1.034433580935001373e-02
-8.305218070745468140e-02,-1.002092733979225159e-01,2.674786373972892761e-02,-7.373902201652526855e-02,7.457029819488525391e-02,-3.939392417669296265e-02,1.220052540302276611e-01,6.475397199392318726e-02,-1.381025761365890503e-01,8.906176686286926270e-02
1.347465515136718750e-01,-8.975929021835327148e-02,6.597445905208587646e-02,8.219970762729644775e-02,1.815171353518962860e-02,-2.841285802423954010e-02,1.110461726784706116e-01,2.591282501816749573e-02,3.679557517170906067e-02,-1.303662061691284180e-01
-4.826528578996658325e-02,9.874591231346130371e-02,-9.423363208770751953e-02,-2.988709369674324989e-03,9.697550535202026367e-02,5.848234519362449646e-02,-1.618895083665847778e-01,-4.669610783457756042e-02,-1.302156746387481689e-01,1.099561080336570740e-01
1.398139819502830505e-02,-1.392893344163894653e-01,-1.224902719259262085e-01,-9.315194189548492432e-02,9.831649065017700195e-02,-2.632090635597705841e-02,-8.466963469982147217e-02,-1.897961832582950592e-02,8.864061534404754639e-02,-9.782303869724273682e-02
-9.000358730554580688e-02,1.805657148361206055e-01,-1.076824814081192017e-01,-7.115742564201354980e-02,-9.267578832805156708e-03,9.249422699213027954e-02,1.506755687296390533e-02,-1.270273327827453613e-01,1.218954026699066162e-01,2.533509023487567902e-02
-5.598103627562522888e-02,6.629884988069534302e-02,1.439169347286224365e-01,1.321851313114166260e-01,-3.994683793280273676e-04,1.991319954395294189e-01,1.072836294770240784e-01,-1.596143841743469238e-01,-1.426414400339126587e-01,1.007666997611522675e-02
9.924393147230148315e-02,5.042264610528945923e-02,-2.967591769993305206e-02,3.972421213984489441e-02,3.978900611400604248e-02,-6.984166055917739868e-02,1.053622290492057800e-01,-1.059158220887184143e-01,-1.366341561079025269e-01,5.199146270751953125e-02
3.412393108010292053e-02,-8.805284649133682251e-02,5.886861123144626617e-03,-2.440676279366016388e-02,9.656897932291030884e-02,-2.379235439002513885e-02,-1.558140814304351807e-01,7.131558842957019806e-03,-3.495792672038078308e-02,-3.841204941272735596e-02
1.059633791446685791e-01,-1.562254577875137329e-01,-4.223579913377761841e-02,1.558230668306350708e-01,-2.402798272669315338e-02,-2.035585045814514160e-02,-1.170519832521677017e-02,4.449297487735748291e-02,8.714546263217926025e-02,-4.209437221288681030e-02
-1.452583633363246918e-02,-8.429230004549026489e-02,2.272828482091426849e-03,-5.473900958895683289e-02,-5.465717986226081848e-02,8.421529084444046021e-02,-4.961724951863288879e-02,-1.673765331506729126e-01,7.218261808156967163e-02,1.229244023561477661e-01
9.970232844352722168e-02,5.990157276391983032e-02,-8.841351419687271118e-02,-1.139855533838272095e-01,-6.467562913894653320e-02,8.049865067005157471e-02,9.135224670171737671e-02,1.881099306046962738e-02,-1.293903291225433350e-01,2.010286152362823486e-01
-4.421851132065057755e-03,-1.016905531287193298e-01,4.932174459099769592e-02,1.837697029113769531e-01,-1.362120211124420166e-01,2.871329523622989655e-02,-6.851697713136672974e-02,1.426497753709554672e-02,4.734572395682334900e-02,-9.414134174585342407e-02
-8.334774523973464966e-02,-4.293385893106460571e-02,-5.121683329343795776e-02,-1.384058147668838501e-01,8.025838993489742279e-03,-1.480790507048368454e-02,-6.135727837681770325e-02,-7.945110648870468140e-02,3.226677328348159790e-02,-4.070428013801574707e-02
-2.074620313942432404e-02,1.485636979341506958e-01,5.814756453037261963e-02,8.692357689142227173e-02,-1.603038609027862549e-01,-1.337286233901977539e-01,3.440224006772041321e-02,-5.972450599074363708e-03,-7.486679404973983765e-02,-5.847635492682456970e-02
-5.599533393979072571e-02,1.045780107378959656e-01,-1.553708501160144806e-02,1.055102348327636719e-01,7.549109309911727905e-02,-3.232844546437263489e-02,-8.438337594270706177e-02,-1.537192910909652710e-01,4.043165966868400574e-02,1.470745503902435303e-01
3.953775763511657715e-02,-8.861372619867324829e-02,5.861367285251617432e-02,-1.451441496610641479e-01,-1.015938594937324524e-01,9.001427888870239258e-02,1.528903096914291382e-01,-2.791287377476692200e-02,3.081803955137729645e-02,8.455823175609111786e-03
-1.297908369451761246e-02,1.360169798135757446e-01,-8.650518953800201416e-02,-1.171646565198898315e-01,-1.071920692920684814e-01,-1.089979335665702820e-01,-6.060282140970230103e-02,8.034729957580566406e-02,-1.250234097242355347e-01,1.446193605661392212e-01
7.395453751087188721e-02,1.409169286489486694e-01,1.232424899935722351e-01,-5.140206590294837952e-02,1.949257999658584595e-01,1.608531326055526733e-01,1.584498286247253418e-01,-1.079759076237678528e-01,-1.556980609893798828e-01,-1.139373779296875000e-01
5.157981440424919128e-02,-2.515292540192604065e-02,6.637018173933029175e-02,-1.342333853244781494e-01,1.161858066916465759e-01,4.703261703252792358e-02,-5.859577655792236328e-02,-1.707869619131088257e-01,4.093826562166213989e-02,-1.557267159223556519e-01
7.908516563475131989e-03,-5.657044798135757446e-02,1.296731084585189819e-01,8.028446137905120850e-02,-1.747494786977767944e-01,3.695057332515716553e-02,-1.492713093757629395e-01,-1.070724576711654663e-01,-1.247095093131065369e-01,-4.250824823975563049e-02
-7.412323355674743652e-02,8.666132390499114990e-02,-9.269913285970687866e-02,-6.651843897998332977e-03,-6.568036228418350220e-02,3.275358676910400391e-02,-1.009927615523338318e-01,7.252044975757598877e-02,-6.467407941818237305e-02,1.000187844038009644e-01
1.826431304216384888e-01,1.180494651198387146e-01,3.848871961236000061e-02,5.804045498371124268e-02,1.039299741387367249e-02,-1.496360898017883301e-01,3.154473006725311279e-02,7.003539800643920898e-02,-1.284594833850860596e-01,5.537491291761398315e-02
1.005283445119857788e-01,-7.103255391120910645e-02,-9.788748621940612793e-02,-1.787017434835433960e-01,-6.395871192216873169e-02,1.142207346856594086e-02,-9.031646698713302612e-02,1.845749169588088989e-01,-2.056555822491645813e-02,-1.062560006976127625e-01
5.148715898394584656e-02,-8.101208508014678955e-02,-9.243601560592651367e-02,-5.394164472818374634e-02,1.078358441591262817e-01,-1.368042528629302979e-01,1.763664782047271729e-01,1.563543975353240967e-01,-7.828441448509693146e-03,8.712974190711975098e-02
-4.925176128745079041e-02,-1.331406235694885254e-01,-3.058413416147232056e-02,1.187486723065376282e-01,-6.366448849439620972e-02,5.633314698934555054e-02,-1.293346583843231201e-01,-3.008414432406425476e-02,-8.878413587808609009e-02,-7.821947336196899414e-02
-8.235438913106918335e-02,-2.011297196149826050e-01,-3.808609396219253540e-02,7.885326631367206573e-04,-1.380863934755325317e-01,1.042523011565208435e-01,-4.949960112571716309e-02,-2.423197263851761818e-03,5.297835916280746460e-02,-2.539871446788311005e-02
-9.931281954050064087e-02,9.496194869279861450e-02,8.514408767223358154e-02,-6.798651069402694702e-02,4.839820414781570435e-02,1.654462367296218872e-01,8.276015520095825195e-02,8.797704428434371948e-02,-1.138181984424591064e-02,-1.863328516483306885e-01
1.786606013774871826e-02,-4.919487610459327698e-02,-3.024324588477611542e-02,9.999839961528778076e-02,1.173813864588737488e-01,-4.272075835615396500e-03,-1.398067474365234375e-01,2.119255065917968750e-01,-9.778127819299697876e-02,8.041382580995559692e-02
3.071436285972595215e-02,-6.747166812419891357e-02,-1.226572394371032715e-01,9.208370745182037354e-02,9.462973475456237793e-02,7.263655960559844971e-02,-9.109902381896972656e-02,-6.676564365625381470e-02,-7.717557251453399658e-02,2.929006703197956085e-02
-1.486741602420806885e-01,7.459880411624908447e-02,-5.643100291490554810e-02,1.171041205525398254e-01,1.496046781539916992e-01,-1.306180097162723541e-02,5.257975682616233826e-02,-1.239678412675857544e-01,7.752581685781478882e-02,-5.153047293424606323e-02
5.722999945282936096e-02,-1.342658977955579758e-02,1.348688900470733643e-01,4.492364078760147095e-02,-1.975178159773349762e-02,-7.181733101606369019e-02,-1.069670990109443665e-01,-9.950812160968780518e-02,-3.986150398850440979e-02,1.028152182698249817e-01
-8.744151890277862549e-02,1.656060665845870972e-01,-7.413728535175323486e-02,-9.222068637609481812e-02,2.083634585142135620e-02,-1.443942487239837646e-01,1.364814937114715576e-01,-1.264145374298095703e-01,1.054738834500312805e-01,-4.397234413772821426e-03
-3.518738597631454468e-02,-2.864273078739643097e-02,-9.408483654260635376e-02,-9.724000841379165649e-02,-5.999566614627838135e-02,-1.127090379595756531e-01,-2.838308922946453094e-02,5.739336833357810974e-03,-1.216653138399124146e-01,-8.275637030601501465e-02
3.122063912451267242e-02,-1.123635470867156982e-01,2.285277470946311951e-02,-3.247518837451934814e-02,-4.352209344506263733e-02,7.802952826023101807e-02,1.024435460567474365e-01,8.436996489763259888e-02,1.811394691467285156e-01,-8.357488363981246948e-02
-8.919181674718856812e-02,1.276995837688446045e-01,4.082619398832321167e-02,-1.890940964221954346e-01,-3.042309544980525970e-02,3.759419173002243042e-02,6.374020129442214966e-02,3.800338832661509514e-03,-1.697234809398651123e-01,-3.656923398375511169e-02
1.060668975114822388e-01,1.724947690963745117e-01,3.572217375040054321e-02,-1.575373113155364990e-01,2.509806491434574127e-02,-6.363414973020553589e-02,1.104554608464241028e-01,5.090169981122016907e-02,7.669091969728469849e-02,9.865228086709976196e-02
-5.407557636499404907e-02,1.019623056054115295e-01,-1.420785039663314819e-01,1.259978860616683960e-01,1.473229080438613892e-01,-2.400436066091060638e-02,4.603683575987815857e-02,1.377879381179809570e-01,-5.451015755534172058e-02,7.328712940216064453e-02
-3.120434284210205078e-02,1.339571923017501831e-01,-4.632614925503730774e-02,-6.381066143512725830e-02,-1.854777522385120392e-02,-1.494671553373336792e-01,-1.753064244985580444e-02,-2.191828191280364990e-02,6.199456378817558289e-02,1.519133597612380981e-01
-1.153913289308547974e-01,-1.194453239440917969e-01,-8.357274532318115234e-02,9.751102328300476074e-02,-5.428057536482810974e-02,-1.503688246011734009e-01,3.115965519100427628e-04,-1.500651687383651733e-01,-1.069995947182178497e-02,-5.602680891752243042e-02
1.001177355647087097e-01,-7.474864274263381958e-02,-7.003665715456008911e-02,-4.923715069890022278e-02,1.927352398633956909e-01,-3.788099810481071472e-02,-9.889309108257293701e-02,1.644764691591262817e-01,-1.407386958599090576e-01,3.725314885377883911e-02
-1.585360914468765259e-01,-1.574532985687255859e-01,-2.250372618436813354e-02,5.467512458562850952e-02,-5.475301668047904968e-02,1.700342744588851929e-01,-9.863327443599700928e-02,-1.029825732111930847e-01,2.404318004846572876e-02,6.401653587818145752e-02
1.355830729007720947e-01,4.366385564208030701e-02,4.236401617527008057e-02,-4.594151861965656281e-03,-1.565922237932682037e-02,4.038611799478530884e-02,-7.474309206008911133e-02,1.133434027433395386e-01,1.439616829156875610e-01,-1.126646175980567932e-01
-2.407881803810596466e-02,1.073164716362953186e-01,9.814138710498809814e-02,1.683041304349899292e-01,1.076451689004898071e-01,1.341140121221542358e-01,2.026661112904548645e-02,4.984540399163961411e-03,-9.178926236927509308e-03,-7.160646468400955200e-02
-3.090994805097579956e-02,5.180998519062995911e-02,1.496026664972305298e-02,8.087666332721710205e-02,-6.853311788290739059e-03,9.782597422599792480e-02,5.214484408497810364e-02,-1.438268125057220459e-01,-1.230544410645961761e-02,-6.193857267498970032e-02
1.025830879807472229e-01,-4.071004316210746765e-02,-9.711036831140518188e-02,7.146114110946655273e-02,-8.358974754810333252e-02,-2.735532820224761963e-02,-7.907118648290634155e-02,8.316085487604141235e-02,9.002415090799331665e-02,4.659749567508697510e-02
1.539818663150072098e-02,1.550231724977493286e-01,7.021648436784744263e-02,-9.038378298282623291e-02,-1.950709894299507141e-02,-2.476816996932029724e-02,1.228092163801193237e-01,2.124634105712175369e-03,-2.318700961768627167e-02,-3.214701265096664429e-02
1.893908949568867683e-03,-7.479199022054672241e-02,2.413068711757659912e-02,4.203692078590393066e-02,-1.415354758501052856e-01,-1.509591341018676758e-01,-5.975132435560226440e-02,-2.938188426196575165e-02,-1.268393397331237793e-01,3.612878918647766113e-02
6.483425199985504150e-02,-4.018209129571914673e-02,-1.179528683423995972e-01,6.250068545341491699e-02,-9.870364516973495483e-02,4.110245034098625183e-02,-9.458748251199722290e-02,-1.088458076119422913e-01,-8.540303260087966919e-02,-1.259231567382812500e-01
1.141923964023590088e-01,7.892964780330657959e-02,-1.202922407537698746e-02,5.042867735028266907e-02,-7.292024046182632446e-02,-9.570075571537017822e-02,-9.025339782238006592e-02,-2.077627480030059814e-01,3.262811526656150818e-02,-1.143077239394187927e-01
-2.509436570107936859e-02,-1.804048269987106323e-01,-1.016092449426651001e-01,-9.122643619775772095e-02,-5.694112554192543030e-02,-1.805106401443481445e-01,1.077755391597747803e-01,-1.142299994826316833e-01,3.329136595129966736e-02,-1.216289214789867401e-02
-6.480869650840759277e-02,-1.247410252690315247e-01,-6.125200539827346802e-02,9.920423850417137146e-03,-9.955905377864837646e-02,4.797836393117904663e-02,6.575115770101547241e-02,-2.093283087015151978e-01,1.814065314829349518e-02,1.097773760557174683e-01
-5.209462344646453857e-02,-2.923715859651565552e-02,5.340319126844406128e-03,-5.334940925240516663e-02,-4.580653086304664612e-02,7.996492087841033936e-02,5.922662094235420227e-02,3.522520884871482849e-02,-8.107661269605159760e-03,-9.495158493518829346e-02
6.798552349209785461e-03,1.265393663197755814e-02,1.093874722719192505e-01,-1.422954648733139038e-01,1.634721308946609497e-01,-5.697992816567420959e-02,4.560733214020729065e-02,8.928230404853820801e-02,-1.271029561758041382e-01,6.447502225637435913e-02
-2.009192109107971191e-02,-1.787186861038208008e-01,5.438422411680221558e-02,8.101211488246917725e-02,7.772663235664367676e-02,6.288962066173553467e-02,1.626760810613632202e-01,7.970937341451644897e-02,-1.736000180244445801e-01,-4.205033183097839355e-02
7.785069197416305542e-02,-1.056304723024368286e-01,-7.071574777364730835e-02,-7.638365030288696289e-02,4.448189958930015564e-02,4.345944896340370178e-02,-1.608242988586425781e-01,-1.241547465324401855e-01,1.681833900511264801e-02,-1.657118797302246094e-01
-1.544071584939956665e-01,1.357990801334381104e-01,-5.740318074822425842e-02,7.824686169624328613e-02,-5.166286975145339966e-02,3.651709482073783875e-02,1.404487788677215576e-01,-3.021378442645072937e-02,-1.216051727533340454e-01,-3.378948196768760681e-02
-1.597916334867477417e-01,1.104767695069313049e-01,-7.714788615703582764e-02,1.631241291761398315e-02,-3.657116368412971497e-02,-2.239693328738212585e-02,2.308414503931999207e-02,-9.252856671810150146e-02,-4.610696062445640564e-02,1.065847948193550110e-01
-5.732934549450874329e-02,1.437556594610214233e-01,-1.861097961664199829e-01,4.446380957961082458e-02,-2.113545536994934082e-01,2.791195549070835114e-02,-1.948401480913162231e-01,-3.244595974683761597e-02,-8.610278367996215820e-02,1.213885098695755005e-01
8.857715129852294922e-02,5.475743114948272705e-02,1.875228621065616608e-02,-1.568228602409362793e-01,1.721068844199180603e-02,1.506779938936233521e-01,4.359575454145669937e-03,8.599890023469924927e-02,-3.731304779648780823e-02,-7.398094236850738525e-02
-6.976191699504852295e-02,1.477140840142965317e-02,-1.081044450402259827e-01,5.583489313721656799e-02,-1.424078922718763351e-02,1.493621766567230225e-01,3.773612901568412781e-02,1.197996214032173157e-01,-6.405232846736907959e-02,-7.306145969778299332e-03
-1.096757203340530396e-01,-5.376109387725591660e-03,-7.646132260560989380e-03,-5.470537114888429642e-03,-1.117812097072601318e-01,-1.358934640884399414e-01,6.409240514039993286e-02,9.055155515670776367e-02,2.610545838251709938e-03,-7.122839987277984619e-02
7.372737675905227661e-02,-1.857389062643051147e-01,3.770415112376213074e-02,-1.009997725486755371e-01,-1.243894696235656738e-01,1.681484133005142212e-01,1.068263351917266846e-01,7.376568391919136047e-03,-5.337232723832130432e-03,-3.897438291460275650e-03
-1.158378347754478455e-01,2.259766310453414917e-02,-9.537500143051147461e-02,-9.780704975128173828e-02,-2.634662017226219177e-02,-8.912336081266403198e-02,-1.326814591884613037e-01,-1.242108792066574097e-01,6.402350962162017822e-02,5.711381137371063232e-02
-2.311243675649166107e-02,-1.015086323022842407e-01,1.155580207705497742e-01,1.180274710059165955e-01,3.018919564783573151e-02,-1.716142706573009491e-02,-7.271526008844375610e-02,5.345938727259635925e-02,-2.359111048281192780e-02,-8.779804408550262451e-02
-4.750578105449676514e-02,-6.617689877748489380e-02,2.085860818624496460e-02,-6.613096594810485840e-02,1.468615885823965073e-02,-1.608471721410751343e-01,1.427559256553649902e-01,-1.139608919620513916e-01,-1.060881838202476501e-01,-1.122094914317131042e-01
-1.406430900096893311e-01,-1.572836786508560181e-01,-2.060090750455856323e-02,-1.379364877939224243e-01,1.389944553375244141e-01,7.879112660884857178e-02,-1.664636433124542236e-01,1.077264249324798584e-01,8.819432556629180908e-02,1.065993905067443848e-01
-2.450204826891422272e-02,-7.982575893402099609e-02,1.136721372604370117e-01,-1.585305780172348022e-01,1.545875221490859985e-01,-1.964996755123138428e-02,1.867598621174693108e-03,1.536720711737871170e-02,-8.311750739812850952e-02,5.033178627490997314e-02
2.550248801708221436e-02,5.259950086474418640e-02,5.415894836187362671e-02,1.134196445345878601e-01,7.562203705310821533e-02,1.132726073265075684e-01,2.372957952320575714e-02,3.301524743437767029e-02,6.832645088434219360e-02,-3.000227175652980804e-02
-1.368257999420166016e-01,-3.762136772274971008e-02,-7.654001563787460327e-02,1.382001638412475586e-01,-7.847344875335693359e-02,1.200316622853279114e-01,-1.603947728872299194e-01,5.666093155741691589e-02,1.664528548717498779e-01,-7.262722402811050415e-02
9.215122461318969727e-02,-1.199223324656486511e-01,-6.229848414659500122e-02,-8.920924365520477295e-02,4.772102460265159607e-02,-8.348710834980010986e-02,-3.324593603610992432e-02,-2.987853996455669403e-02,1.450023502111434937e-01,-3.322381898760795593e-02
6.418476998805999756e-02,4.213558509945869446e-02,4.043997079133987427e-02,7.302857935428619385e-02,-4.100184515118598938e-02,3.323793783783912659e-02,-1.492708325386047363e-01,-3.888148069381713867e-02,-6.926612555980682373e-02,1.361315045505762100e-02
8.549529314041137695e-02,9.100917726755142212e-02,1.168636009097099304e-01,-2.216465212404727936e-02,-1.464677155017852783e-01,-1.229454576969146729e-01,3.082881495356559753e-02,-1.503190863877534866e-02,5.433549731969833374e-02,3.830005601048469543e-02
2.038543112576007843e-03,-5.991043150424957275e-02,-7.449956983327865601e-02,-1.084589585661888123e-02,-7.997429370880126953e-02,-2.189780212938785553e-02,3.702843934297561646e-02,-1.800944283604621887e-02,4.345108941197395325e-02,6.365883629769086838e-03
5.382275208830833435e-02,-1.365818977355957031e-01,6.160663068294525146e-02,-8.110982924699783325e-02,-2.514627948403358459e-02,6.977313011884689331e-02,-5.105349794030189514e-02,3.070296486839652061e-03,6.266056001186370850e-02,-7.848553359508514404e-02
7.546713203191757202e-02,-1.367646753787994385e-01,1.543973982334136963e-01,1.256475001573562622e-01,1.623433828353881836e-02,-1.007940992712974548e-01,-1.598811298608779907e-01,8.847861737012863159e-02,1.100365221500396729e-01,8.139140158891677856e-02
7.232365757226943970e-02,1.095409691333770752e-01,-1.512499433010816574e-02,-1.822986155748367310e-01,-1.110208407044410706e-01,5.342089757323265076e-02,7.618040591478347778e-02,-4.393182229250669479e-03,-7.617464661598205566e-02,-1.348914229311048985e-03
3.707113862037658691e-02,-2.965349517762660980e-02,-1.329842507839202881e-01,3.557072952389717102e-02,2.339249104261398315e-02,8.456966280937194824e-02,1.426684409379959106e-01,-1.082097962498664856e-01,-1.930848136544227600e-02,1.220257803797721863e-01
1.490662693977355957e-01,4.040810093283653259e-02,1.219058409333229065e-01,8.079905062913894653e-02,-1.053548827767372131e-01,1.660011708736419678e-01,2.336367266252636909e-03,-5.853734910488128662e-02,7.082022726535797119e-02,7.068032026290893555e-02
-8.096905797719955444e-02,-1.241259574890136719e-01,7.023941725492477417e-02,7.867661863565444946e-02,8.482632786035537720e-02,-3.626501932740211487e-02,-9.420143067836761475e-02,3.997294977307319641e-02,1.835908144712448120e-01,5.673590302467346191e-02
1.299182772636413574e-01,1.610397845506668091e-01,-4.665073938667774200e-03,-1.845439821481704712e-01,8.072304725646972656e-02,3.324573859572410583e-02,8.452232927083969116e-02,8.598204702138900757e-03,3.199291601777076721e-02,-1.040154993534088135e-01
7.476679235696792603e-02,5.480945482850074768e-02,3.105648234486579895e-02,-4.093181341886520386e-02,2.913730219006538391e-02,-1.645416468381881714e-01,-6.135731190443038940e-02,1.637647747993469238e-01,-1.758274137973785400e-01,-1.998627930879592896e-02
-8.909291774034500122e-02,1.975443512201309204e-01,2.460318058729171753e-02,-7.200752198696136475e-02,-1.904335021972656250e-01,-4.841022193431854248e-02,-2.474178560078144073e-03,8.118161559104919434e-02,6.790062785148620605e-02,1.598849445581436157e-01
-8.486340939998626709e-02,6.947725266218185425e-02,-8.528973162174224854e-02,-1.005444526672363281e-01,8.439136296510696411e-02,-8.149604499340057373e-02,-4.235684871673583984e-02,-9.862900525331497192e-02,1.841800510883331299e-01,-1.349859219044446945e-02
1.101447418332099915e-01,1.317320317029953003e-01,1.651572287082672119e-01,-1.145804226398468018e-01,1.203746646642684937e-01,1.065725609660148621e-01,2.605419419705867767e-02,3.910683095455169678e-02,-2.159371972084045410e-02,-9.577025473117828369e-02
-2.717585489153862000e-02,-4.158511757850646973e-02,9.550360590219497681e-02,-8.790977299213409424e-02,-9.852591902017593384e-02,-7.619341369718313217e-03,-7.910373061895370483e-02,4.504464566707611084e-02,1.112588346004486084e-01,-8.615309000015258789e-02
9.961844235658645630e-02,5.403374135494232178e-02,1.247961167246103287e-02,4.672769084572792053e-02,-5.637976154685020447e-02,5.970269814133644104e-02,-1.088961400091648102e-02,-4.257173463702201843e-02,-5.818625539541244507e-02,5.793952569365501404e-02
4.733239859342575073e-02,-9.795510768890380859e-02,8.435615152120590210e-02,-4.385239258408546448e-02,2.977849915623664856e-03,1.078317727660760283e-04,-8.887496590614318848e-02,-4.797940701246261597e-02,-7.919379323720932007e-02,1.148715615272521973e-01
6.972701847553253174e-02,5.852968618273735046e-02,-4.858884587883949280e-02,1.343545317649841309e-01,-1.094707772135734558e-01,-5.713462829589843750e-03,1.363942306488752365e-02,1.203386038541793823e-01,-2.814090438187122345e-02,-5.097690969705581665e-02
6.957002729177474976e-02,-1.577892899513244629e-01,-1.392184942960739136e-01,7.284372299909591675e-02,9.927206486463546753e-02,-7.305423170328140259e-02,-8.054690062999725342e-02,7.261990010738372803e-02,7.118142396211624146e-02,-2.189501654356718063e-03
1.350653618574142456e-01,-4.994074627757072449e-02,-9.794522821903228760e-02,2.963458560407161713e-02,-1.618449538946151733e-01,1.421268191188573837e-02,-1.009608581662178040e-01,-3.993528336286544800e-02,-3.711823746562004089e-02,-1.936246007680892944e-01
7.315743248909711838e-03,-1.798860132694244385e-01,-4.290008544921875000e-02,-1.266809105873107910e-01,-1.163929551839828491e-01,-1.265079379081726074e-01,-1.599799990653991699e-01,-3.741407021880149841e-02,4.140115156769752502e-02,1.730167567729949951e-01
1.359516978263854980e-01,3.812956064939498901e-02,-1.748561561107635498e-01,1.623753458261489868e-02,1.469006091356277466e-01,-8.970563858747482300e-02,7.960742712020874023e-02,9.370586276054382324e-02,-9.176511317491531372e-02,-1.715524345636367798e-01
1.175988763570785522e-01,1.314568817615509033e-01,-6.512316316366195679e-02,-1.028921753168106079e-01,-9.146376699209213257e-02,1.478515863418579102e-01,-8.395939320325851440e-02,-3.465947695076465607e-03,1.290302425622940063e-01,4.294148087501525879e-02
-1.616877913475036621e-01,-6.423739343881607056e-02,7.172966748476028442e-02,5.125252529978752136e-03,-1.332848221063613892e-01,-2.923025749623775482e-02,-1.452030688524246216e-01,7.467155158519744873e-02,1.574557870626449585e-01,6.382942199707031250e-02
-1.175425052642822266e-01,4.075386747717857361e-02,2.651614136993885040e-02,-1.291764229536056519e-01,2.705304883420467377e-02,5.898477882146835327e-02,1.555432230234146118e-01,-3.441357985138893127e-02,3.816632553935050964e-02,-1.528963912278413773e-03
-1.077347323298454285e-01,1.271654218435287476e-01,1.322761923074722290e-01,-1.350362300872802734e-01,1.422962546348571777e-01,-5.254858359694480896e-02,-9.590220451354980469e-02,-7.130490303097758442e-06,-1.123084053397178650e-01,-6.503890454769134521e-02
5.006454512476921082e-02,1.662720292806625366e-01,2.158406935632228851e-02,1.219971105456352234e-01,-8.010359853506088257e-02,9.483364224433898926e-02,7.288758456707000732e-02,3.083597682416439056e-02,-2.570649981498718262e-02,1.072371602058410645e-01
-5.970351397991180420e-02,-3.672797977924346924e-02,7.033908367156982422e-02,-1.681621968746185303e-01,-1.809503510594367981e-02,1.522106528282165527e-01,1.029900088906288147e-01,3.371683508157730103e-02,-8.317024260759353638e-02,5.456313490867614746e-02
3.811625018715858459e-02,-6.854575127363204956e-02,4.455949366092681885e-02,-1.020327061414718628e-01,-6.221541203558444977e-03,-7.011534273624420166e-02,6.739191710948944092e-02,-4.724614322185516357e-02,-1.109249815344810486e-01,-1.449637711048126221e-01
2.364107593894004822e-02,1.235032752156257629e-01,2.714063227176666260e-02,-7.862087339162826538e-02,8.256856352090835571e-02,-1.109311580657958984e-01,-1.070734485983848572e-01,-9.768671542406082153e-02,8.633203804492950439e-03,-1.288764774799346924e-01
-4.670357704162597656e-02,-1.560068726539611816e-01,-4.740744829177856445e-02,1.175236627459526062e-01,6.927127251401543617e-04,-6.057548895478248596e-02,-5.161576904356479645e-03,-1.047106981277465820e-01,8.999326825141906738e-02,1.705921813845634460e-02
1.285274028778076172e-01,5.887651816010475159e-02,5.576878786087036133e-02,-1.853376626968383789e-02,9.572494775056838989e-02,1.639013923704624176e-02,-6.084000319242477417e-02,-1.355991605669260025e-02,-1.284036505967378616e-02,-3.524082526564598083e-02
8.040067553520202637e-02,1.272355318069458008e-01,3.726899996399879456e-02,-3.390140831470489502e-02,-1.439548749476671219e-02,-1.946093514561653137e-02,1.393798291683197021e-01,-8.413059264421463013e-02,-1.447597891092300415e-01,5.464609712362289429e-02
4.619126021862030029e-02,-9.568529576063156128e-02,-2.368913777172565460e-02,-3.040957078337669373e-02,-9.387532621622085571e-02,3.349885717034339905e-02,-1.695244759321212769e-01,-1.325548160821199417e-02,-1.604036688804626465e-01,-1.180400922894477844e-01
-2.115838602185249329e-02,1.728049851953983307e-02,-1.038356721401214600e-01,6.514671258628368378e-04,-9.444684535264968872e-02,-7.853935472667217255e-03,-1.303769648075103760e-01,2.003911435604095459e-01,-1.272885054349899292e-01,-8.446361124515533447e-02
-9.958710521459579468e-02,7.667612284421920776e-02,-5.115368589758872986e-02,1.774333417415618896e-01,-4.698884114623069763e-02,1.458561867475509644e-01,-9.954386949539184570e-02,3.380804136395454407e-02,2.140415832400321960e-02,-8.508448302745819092e-02
-9.832113981246948242e-02,-3.437002375721931458e-02,6.400778889656066895e-02,-8.057883381843566895e-02,1.610841006040573120e-01,-1.318327933549880981e-01,-4.459157958626747131e-02,7.283230125904083252e-02,7.656718790531158447e-02,-1.218087077140808105e-01
4.434787482023239136e-02,-5.885281413793563843e-02,-1.366206258535385132e-01,1.835844106972217560e-02,-1.688947081565856934e-01,2.938986988738179207e-03,8.848311752080917358e-02,6.570225208997726440e-02,-9.809356927871704102e-02,5.549531802535057068e-02
-2.312162145972251892e-02,3.159644454717636108e-02,1.006819531321525574e-01,-6.398318707942962646e-02,-8.009853772819042206e-03,1.136749312281608582e-01,4.052741080522537231e-02,8.734349906444549561e-02,-1.430055201053619385e-01,3.176235407590866089e-02
-8.737033233046531677e-03,-8.509302139282226562e-02,8.895359188318252563e-02,2.938818000257015228e-02,-1.842230185866355896e-02,1.344606094062328339e-02,-1.529880017042160034e-01,1.850359886884689331e-01,-7.792600989341735840e-02,-1.116069331765174866e-01
-4.975869134068489075e-02,1.020517647266387939e-01,6.021232157945632935e-02,1.324193179607391357e-02,-4.280475527048110962e-02,1.584513187408447266e-01,1.167218312621116638e-01,-7.473098486661911011e-02,8.629791438579559326e-02,-8.918644487857818604e-02
-1.134537458419799805e-01,-2.832322567701339722e-02,7.756359875202178955e-02,1.337745785713195801e-01,-9.862203150987625122e-02,-9.380299597978591919e-02,7.239833474159240723e-02,-1.025823727250099182e-01,-3.799564018845558167e-02,-7.632740586996078491e-02
5.021125450730323792e-02,8.423703163862228394e-02,-5.280079320073127747e-02,1.469236426055431366e-02,-1.206010729074478149e-01,5.330794956535100937e-03,1.256566941738128662e-01,-3.945588320493698120e-02,-5.462179705500602722e-02,1.239582002162933350e-01
6.070639565587043762e-02,4.791627451777458191e-02,4.835628345608711243e-02,-1.067214366048574448e-02,8.321519196033477783e-02,7.356425374746322632e-02,5.759203061461448669e-02,9.034319221973419189e-02,-1.195389330387115479e-01,4.091374110430479050e-03
1.433812677860260010e-01,-1.368326693773269653e-01,-3.782974556088447571e-02,-1.735869911499321461e-03,-1.256740987300872803e-01,-1.391400098800659180e-01,1.181299705058336258e-02,-1.321773976087570190e-01,1.425324976444244385e-01,7.526354491710662842e-02
-2.858805283904075623e-02,-2.013243436813354492e-01,-1.299059689044952393e-01,-6.222546100616455078e-02,-2.526488155126571655e-02,-2.507144212722778320e-02,1.191452145576477051e-01,-9.446945786476135254e-02,-5.780271813273429871e-02,-1.161310076713562012e-01
-4.785392060875892639e-02,-7.662317156791687012e-02,-5.019707605242729187e-02,-9.760195016860961914e-02,-4.155350849032402039e-02,-9.275564551353454590e-02,-9.804969280958175659e-02,9.240458160638809204e-02,-3.836527094244956970e-02,-9.930256754159927368e-02
6.356044858694076538e-02,1.905624717473983765e-01,-1.401245594024658203e-01,-6.063324213027954102e-02,-9.543903172016143799e-03,1.984329335391521454e-02,2.796449698507785797e-02,1.509068161249160767e-01,-1.527897715568542480e-01,1.097586378455162048e-01
3.163124248385429382e-02,1.489290148019790649e-01,-9.191705286502838135e-02,-2.407620847225189209e-02,4.638289660215377808e-02,5.173750221729278564e-02,-1.206245645880699158e-01,-1.498076021671295166e-01,1.771323084831237793e-01,1.153609305620193481e-01
5.612343549728393555e-03,8.991664648056030273e-02,-3.613794688135385513e-03,-1.500241272151470184e-02,5.358169227838516235e-02,7.433330267667770386e-02,7.525759935379028320e-02,-1.314975600689649582e-02,-8.904661983251571655e-02,9.455682337284088135e-02
-2.093408070504665375e-02,-8.706733584403991699e-02,-1.366461068391799927e-01,1.206083372235298157e-01,5.468882992863655090e-02,2.675105817615985870e-02,1.160303577780723572e-01,6.338152452372014523e-04,9.092670679092407227e-02,-7.886610180139541626e-02
-9.117725491523742676e-02,-1.007035821676254272e-01,3.852139413356781006e-02,-8.678612112998962402e-02,-1.797081232070922852e-01,-6.724204868078231812e-03,-3.576080128550529480e-02,-6.553278118371963501e-02,-5.441204831004142761e-02,-1.590338535606861115e-02
1.092748939990997314e-01,1.399347186088562012e-01,2.068257192149758339e-03,3.225119411945343018e-02,8.131953072734177113e-04,8.074338734149932861e-02,5.411971360445022583e-02,1.439871042966842651e-01,1.741704642772674561e-01,-7.344044744968414307e-02
2.296169474720954895e-02,-1.942179724574089050e-02,-6.155241746455430984e-03,-1.447122097015380859e-01,9.289994090795516968e-02,4.146077856421470642e-02,3.617390617728233337e-02,1.489212363958358765e-01,-6.167551502585411072e-02,3.800184279680252075e-02
-1.334586590528488159e-01,6.740523129701614380e-02,-1.095628216862678528e-01,1.355116516351699829e-01,1.194158010184764862e-02,1.239050328731536865e-01,1.008518710732460022e-01,6.381596624851226807e-02,-1.019540131092071533e-01,2.013908466324210167e-03
-1.205324307084083557e-01,4.159263893961906433e-02,-1.019820421934127808e-01,-1.009749472141265869e-01,1.664993762969970703e-01,-2.566071972250938416e-02,-5.942268297076225281e-02,-3.125890716910362244e-02,-8.740004152059555054e-02,2.692103199660778046e-02
-5.807750672101974487e-02,-1.196520924568176270e-01,-1.262606382369995117e-01,-1.369099020957946777e-01,-1.498095542192459106e-01,-4.206382483243942261e-02,4.673254862427711487e-02,-1.302056014537811279e-01,-5.225716531276702881e-02,1.482632458209991455e-01
4.440466687083244324e-02,-1.343842446804046631e-01,1.112315654754638672e-01,-7.854350656270980835e-02,3.048230335116386414e-02,-1.513130813837051392e-01,-4.154344275593757629e-02,1.079280897974967957e-01,-6.871356815099716187e-02,1.763001643121242523e-02
5.404449254274368286e-02,9.007252752780914307e-02,1.065075099468231201e-01,-1.400500442832708359e-02,-1.520628035068511963e-01,1.311456561088562012e-01,-7.395560294389724731e-02,5.788192618638277054e-03,-1.725658327341079712e-01,-3.270297497510910034e-02
-8.041654527187347412e-02,1.363585293292999268e-01,1.502264849841594696e-02,8.641529083251953125e-02,-6.386972218751907349e-02,-1.139354407787322998e-01,1.700720638036727905e-01,1.519319266080856323e-01,1.107176672667264938e-02,8.594738692045211792e-02
-1.736544221639633179e-01,1.158403530716896057e-01,-5.430886149406433105e-02,1.898962259292602539e-02,-5.122534185647964478e-02,1.442073136568069458e-01,-1.614452712237834930e-02,-5.108625814318656921e-02,-8.462259173393249512e-02,7.191050052642822266e-02
-4.336991906166076660e-02,1.471000611782073975e-01,-4.613116743712453172e-06,3.472530096769332886e-02,5.476877838373184204e-02,-9.187287837266921997e-02,-1.293397694826126099e-01,1.293884962797164917e-01,-1.916312724351882935e-01,9.783119708299636841e-02
4.887763498118147254e-05,1.179277151823043823e-01,-2.708538807928562164e-02,7.508063316345214844e-02,1.490564793348312378e-01,3.051864448934793472e-03,4.929291456937789917e-02,9.499746561050415039e-02,-6.877988576889038086e-02,9.650598466396331787e-02
-3.812803328037261963e-02,8.685828000307083130e-02,1.928940298967063427e-03,7.943129539489746094e-02,1.321696043014526367e-01,8.136960119009017944e-02,-1.963826268911361694e-01,-4.280372336506843567e-02,6.193620339035987854e-02,4.531512409448623657e-02
2.149134874343872070e-02,-9.031820297241210938e-02,9.152348339557647705e-02,1.072809621691703796e-01,3.632038459181785583e-02,1.592742353677749634e-01,-2.009167224168777466e-01,1.269415915012359619e-01,6.609152071177959442e-03,8.173324167728424072e-02
1.160595118999481201e-01,-1.005858108401298523e-01,-9.203892201185226440e-02,-1.338627189397811890e-02,-5.628651753067970276e-02,-1.073236837983131409e-01,6.785374879837036133e-02,1.959609054028987885e-02,-3.673155605792999268e-02,2.604990452527999878e-02
-7.176574785262346268e-03,1.442367881536483765e-01,1.247169226408004761e-01,-5.833728611469268799e-02,1.687268167734146118e-01,3.923800832126289606e-04,1.385761350393295288e-01,1.100650336593389511e-02,1.065033376216888428e-01,-6.967590004205703735e-02
6.086277216672897339e-02,1.809197217226028442e-01,1.983846724033355713e-02,-9.415742009878158569e-02,7.151696830987930298e-02,-9.696249850094318390e-03,-1.189852282404899597e-01,8.177179098129272461e-02,1.235909909009933472e-01,-7.171513885259628296e-02
8.050390332937240601e-02,1.348168849945068359e-01,5.095137655735015869e-02,-1.046503148972988129e-02,-1.218677237629890442e-01,3.600571677088737488e-02,1.301142852753400803e-03,-3.663839399814605713e-02,-5.943303182721138000e-02,9.463980793952941895e-02
2.712887339293956757e-02,1.522946506738662720e-01,3.550914302468299866e-02,2.914856933057308197e-02,-1.469402853399515152e-02,-1.307205557823181152e-01,-3.631498292088508606e-02,-5.886515602469444275e-02,-1.704305969178676605e-02,7.811354845762252808e-02
-1.229672059416770935e-01,-1.001531258225440979e-01,3.769312053918838501e-02,-3.880332037806510925e-02,-1.351438611745834351e-01,-4.198338836431503296e-02,-1.326761096715927124e-01,-8.544653654098510742e-02,-7.273795455694198608e-02,8.223069459199905396e-02
1.165328025817871094e-01,-8.960752189159393311e-02,-1.259436756372451782e-01,-2.865432575345039368e-02,1.566914170980453491e-01,-3.742828965187072754e-02,1.008091270923614502e-01,-2.097127586603164673e-01,8.369989693164825439e-02,3.924000263214111328e-02
-4.156488925218582153e-02,-1.126047000288963318e-01,-1.740275174379348755e-01,5.552947893738746643e-02,-1.736680977046489716e-02,6.461567431688308716e-02,-7.255234569311141968e-02,1.013523414731025696e-01,1.150827407836914062e-01,6.489286664873361588e-03
-1.590216308832168579e-01,4.483367875218391418e-02,9.004294872283935547e-02,1.211981475353240967e-01,-1.232061162590980530e-01,-9.323423355817794800e-02,-1.213466227054595947e-01,8.821617066860198975e-02,1.187865436077117920e-01,6.386651843786239624e-02
-5.185112729668617249e-02,-1.425813287496566772e-01,3.965332359075546265e-02,1.757671823725104332e-03,7.801183033734560013e-03,1.071194186806678772e-01,-1.844509541988372803e-01,4.563434049487113953e-02,2.697733417153358459e-02,1.494903415441513062e-01
-8.266929216915741563e-05,1.479635387659072876e-01,-3.472298383712768555e-02,5.951999500393867493e-02,-2.094592899084091187e-02,-3.141941502690315247e-02,1.073435172438621521e-01,-6.132380291819572449e-02,-1.338864713907241821e-01,-4.738339781761169434e-02
1.427447795867919922e-01,-4.529210552573204041e-02,3.275901079177856445e-02,8.974482119083404541e-02,1.559716463088989258e-01,-3.049313835799694061e-02,1.135307550430297852e-01,1.731336712837219238e-01,4.630017280578613281e-02,-1.647667959332466125e-02
-1.495006382465362549e-01,3.347585722804069519e-02,1.335404813289642334e-01,8.572753518819808960e-02,-3.934067115187644958e-02,1.122866943478584290e-01,-1.198116596788167953e-02,1.546107977628707886e-01,-1.401133835315704346e-01,-1.514843851327896118e-01
7.601379603147506714e-02,-1.223624497652053833e-01,4.023697599768638611e-02,-2.141322344541549683e-01,-3.145589679479598999e-02,1.431208848953247070e-02,2.057245932519435883e-02,8.533807098865509033e-02,7.118909619748592377e-03,-5.029363185167312622e-02
-1.099226102232933044e-01,-7.346849143505096436e-02,7.141601759940385818e-03,4.523791838437318802e-03,-1.222979053854942322e-01,-1.502081155776977539e-01,1.099381446838378906e-01,-1.693958044052124023e-01,4.522471874952316284e-02,4.880792275071144104e-02
-1.252129673957824707e-01,4.601725190877914429e-02,9.698779881000518799e-02,-5.938506871461868286e-02,2.096826583147048950e-02,4.389018751680850983e-03,1.686782017350196838e-02,5.628066137433052063e-02,-5.804459005594253540e-02,4.614908620715141296e-02
1.194244325160980225e-01,1.240661069750785828e-01,1.421297937631607056e-01,-4.589093849062919617e-02,3.042755648493766785e-03,-9.807296842336654663e-02,9.185624867677688599e-02,1.003540009260177612e-01,-1.847642660140991211e-01,-1.965836063027381897e-02
-1.283973753452301025e-01,-1.664507687091827393e-01,-5.976431444287300110e-02,-1.076171100139617920e-01,-1.303597688674926758e-01,1.419352889060974121e-01,-7.536873221397399902e-02,-1.213524863123893738e-01,-1.399818062782287598e-01,6.497973203659057617e-02
1.157059222459793091e-01,-2.986712194979190826e-02,2.638921700417995453e-02,4.117767326533794403e-03,9.545871615409851074e-02,3.257827088236808777e-02,6.266038119792938232e-02,-2.710231812670826912e-03,1.001527979969978333e-01,1.618547439575195312e-01
-2.657983079552650452e-02,-7.338690012693405151e-02,1.208073794841766357e-01,1.014298275113105774e-01,9.263230115175247192e-02,5.703084543347358704e-02,-6.862654536962509155e-02,-1.166565194725990295e-01,1.654625311493873596e-02,-1.094761863350868225e-01
1.367117464542388916e-01,2.046353183686733246e-02,4.049688205122947693e-02,-1.064537931233644485e-02,-1.276496797800064087e-01,-3.206495940685272217e-02,9.200061112642288208e-02,4.369384143501520157e-03,9.752648323774337769e-02,9.316771477460861206e-02
1.211684942245483398e-01,2.222550567239522934e-03,-5.554408207535743713e-02,4.137410782277584076e-03,1.796012371778488159e-02,6.957489252090454102e-02,-1.284601241350173950e-01,5.738015100359916687e-02,-4.577723890542984009e-02,-1.709036380052566528e-01
2.982881292700767517e-02,1.090852320194244385e-01,-3.354004397988319397e-02,-3.163466975092887878e-02,-1.292167454957962036e-01,2.390263602137565613e-02,-9.903126955032348633e-02,-9.775953739881515503e-02,-1.401090770959854126e-01,-1.706961542367935181e-01
-8.491722494363784790e-02,2.855221927165985107e-02,-5.734677612781524658e-02,-1.971511542797088623e-02,3.534573689103126526e-02,1.538271158933639526e-01,-1.096416711807250977e-01,-1.613766849040985107e-01,1.425879150629043579e-01,-1.105145812034606934e-01
-4.937614873051643372e-02,1.721591651439666748e-01,-3.515695035457611084e-02,-2.630892768502235413e-02,1.524279266595840454e-01,-5.938636139035224915e-02,-2.639271505177021027e-02,1.097358614206314087e-01,-4.435785859823226929e-02,3.722645714879035950e-02
-1.049007400870323181e-01,1.388069540262222290e-01,-6.054828688502311707e-02,-2.321770787239074707e-02,-1.552410796284675598e-02,-6.604760140180587769e-02,9.959661401808261871e-03,3.633754700422286987e-02,1.094989404082298279e-01,3.987489268183708191e-02
1.500850617885589600e-01,5.889256671071052551e-02,-4.144809395074844360e-02,1.493705157190561295e-02,1.118115149438381195e-03,4.510168358683586121e-02,9.600975364446640015e-02,-1.344770342111587524e-01,1.115352734923362732e-01,2.174707129597663879e-03
-1.783517301082611084e-01,-1.835764050483703613e-01,2.511120587587356567e-02,-3.784035518765449524e-02,-2.414647862315177917e-02,5.573128350079059601e-03,7.750876247882843018e-02,9.486520290374755859e-02,7.780652493238449097e-02,5.656708031892776489e-02
-1.166531071066856384e-02,-1.404325515031814575e-01,1.170639097690582275e-01,-4.943886026740074158e-02,-3.328110650181770325e-02,-7.330617308616638184e-02,-7.056163251399993896e-02,-1.124196648597717285e-01,3.175090998411178589e-02,9.123947471380233765e-02
1.049896851181983948e-01,6.178955733776092529e-02,2.216679975390434265e-02,3.004793263971805573e-02,1.101687103509902954e-01,3.387003019452095032e-02,1.337625384330749512e-01,8.095138520002365112e-02,-3.389980643987655640e-02,-6.606781482696533203e-02
4.063263908028602600e-02,7.988556474447250366e-02,-9.275488555431365967e-02,1.071129813790321350e-01,7.042919844388961792e-02,2.801003865897655487e-02,6.404186040163040161e-02,-9.138911962509155273e-02,2.816706709563732147e-02,4.492092132568359375e-02
-6.037597730755805969e-02,1.275030076503753662e-01,5.048192664980888367e-02,-1.149550899863243103e-01,-1.602588146924972534e-01,1.546659916639328003e-01,1.927707344293594360e-01,6.447015702724456787e-02,8.408752828836441040e-02,-7.858034968376159668e-02
6.834966689348220825e-02,-1.731174439191818237e-02,1.532258745282888412e-02,-8.835975080728530884e-02,1.044729575514793396e-01,-5.277070403099060059e-02,-1.571694463491439819e-01,5.070222914218902588e-02,-2.088053822517395020e-01,-8.495161682367324829e-02
-8.733560889959335327e-02,-4.121867194771766663e-02,5.123936384916305542e-02,1.530559919774532318e-02,-2.619975619018077850e-02,-2.103803679347038269e-02,2.838440984487533569e-02,1.231721863150596619e-01,6.722825765609741211e-02,1.461818963289260864e-01
5.595093593001365662e-02,4.220406338572502136e-02,-1.059358716011047363e-01,-6.612580269575119019e-02,1.447909921407699585e-01,9.677253663539886475e-02,1.247679367661476135e-01,1.464864164590835571e-01,3.108407743275165558e-02,-8.582804352045059204e-02
2.048643119633197784e-02,3.507270291447639465e-02,1.739917248487472534e-01,-1.716847121715545654e-01,1.563122868537902832e-01,-6.412187963724136353e-02,-5.245799571275711060e-02,1.022562105208635330e-02,-1.806556731462478638e-01,4.608979448676109314e-02
1.837393939495086670e-01,1.274877786636352539e-02,9.583370760083198547e-03,3.585584089159965515e-02,-9.682297706604003906e-02,2.056569159030914307e-01,1.272220909595489502e-02,-8.811227232217788696e-02,-1.708896132186055183e-03,-7.546925544738769531e-02
-1.012383624911308289e-01,-7.981218397617340088e-02,1.171735581010580063e-02,7.366866618394851685e-02,-1.357360482215881348e-01,1.196596398949623108e-02,1.706395670771598816e-02,-1.618435233831405640e-02,4.587667435407638550e-02,7.252961397171020508e-02
-9.232370555400848389e-02,2.215909399092197418e-02,9.140659868717193604e-02,-4.258181527256965637e-02,-1.375771127641201019e-02,-8.983493596315383911e-02,1.338716447353363037e-01,9.539725631475448608e-02,-1.082163229584693909e-01,4.022105038166046143e-02
4.809009656310081482e-02,-4.848584532737731934e-02,3.246366977691650391e-02,2.104378677904605865e-02,1.375917643308639526e-01,1.885539665818214417e-02,-4.792227223515510559e-02,6.456222385168075562e-02,1.320981141179800034e-02,-4.757396411150693893e-03
-6.669504195451736450e-02,9.172421693801879883e-02,2.896166779100894928e-02,4.834312945604324341e-02,6.130779534578323364e-02,8.212108910083770752e-02,2.263088524341583252e-02,1.280873715877532959e-01,-1.048387736082077026e-01,-1.364902257919311523e-01
-1.161488424986600876e-02,1.076809838414192200e-01,4.020657762885093689e-02,-1.160515025258064270e-01,-1.961002945899963379e-01,-1.749134249985218048e-02,1.121068075299263000e-01,8.415205776691436768e-02,-8.692269772291183472e-02,-1.479177474975585938e-01
1.004279926419258118e-01,-1.382474750280380249e-01,-1.462566405534744263e-01,4.435178637504577637e-02,1.068917289376258850e-01,9.894668310880661011e-02,-1.121325269341468811e-01,5.679621919989585876e-02,-1.531503349542617798e-01,1.180021464824676514e-01
5.502209023688919842e-05,1.825677230954170227e-02,6.669262051582336426e-02,3.528505936264991760e-02,1.078046634793281555e-01,1.149363443255424500e-02,7.944527268409729004e-02,-2.289522439241409302e-02,8.484312891960144043e-02,-6.595690548419952393e-02
-5.128432530909776688e-03,1.133554708212614059e-02,-1.494529843330383301e-01,8.228044956922531128e-02,1.205798909068107605e-01,-6.943861395120620728e-02,1.181671917438507080e-01,-1.597354561090469360e-01,1.739288568496704102e-01,3.088550269603729248e-02
1.703898012638092041e-01,1.624431908130645752e-01,-1.761184632778167725e-01,-5.066092591732740402e-03,-1.979979872703552246e-02,-6.973036378622055054e-02,-9.934224188327789307e-02,1.034682467579841614e-01,-4.714605212211608887e-02,2.876443788409233093e-03
-1.938135474920272827e-01,-5.582806468009948730e-02,-3.462583944201469421e-02,8.760399185121059418e-03,1.596543751657009125e-02,9.747300297021865845e-03,-7.981355302035808563e-03,-3.299181908369064331e-02,3.220029920339584351e-02,7.097124122083187103e-03
4.274606332182884216e-02,1.172844916582107544e-01,-1.891835629940032959e-01,-1.024145074188709259e-02,-1.043364480137825012e-01,1.025176700204610825e-02,1.968206465244293213e-02,-8.022582530975341797e-02,-3.725402802228927612e-02,-8.860315382480621338e-02
5.743915587663650513e-02,9.661325812339782715e-02,-1.253026127815246582e-01,-6.426699459552764893e-02,-4.875368624925613403e-02,-1.568748205900192261e-01,3.771731397137045860e-03,-2.199402078986167908e-02,9.915881603956222534e-02,4.260505735874176025e-02
1.091442853212356567e-01,-1.415116637945175171e-01,-9.032899886369705200e-02,2.503994666039943695e-02,-2.805889211595058441e-02,-1.048711389303207397e-01,-4.267086088657379150e-02,3.013858385384082794e-02,-1.406417191028594971e-01,5.098377913236618042e-02
1.064271703362464905e-01,-1.586294174194335938e-01,-1.478452682495117188e-01,-2.999798767268657684e-02,-4.834402725100517273e-02,-6.862114369869232178e-02,-8.198515325784683228e-02,1.297966539859771729e-01,-2.800720930099487305e-02,5.476682260632514954e-02
-1.856382377445697784e-02,8.295258879661560059e-02,1.081516966223716736e-01,-1.097768843173980713e-01,-1.148638278245925903e-01,-5.491985380649566650e-02,1.335315853357315063e-01,-1.429375912994146347e-02,6.570630520582199097e-02,-3.568051382899284363e-02
2.428436093032360077e-02,1.111152321100234985e-01,1.889445469714701176e-03,1.684191226959228516e-01,1.548549830913543701e-01,9.692524373531341553e-02,-9.087365865707397461e-02,-4.894884675741195679e-02,-8.016765117645263672e-02,-1.170402094721794128e-01
-3.407110273838043213e-02,-1.080542579293251038e-01,2.244838327169418335e-02,-1.969727575778961182e-01,1.544196158647537231e-01,-1.486094743013381958e-01,-1.276542246341705322e-01,1.174334064126014709e-02,-1.047379672527313232e-01,9.609249979257583618e-02
2.489026263356208801e-02,1.800945997238159180e-01,-5.201099812984466553e-02,3.258408978581428528e-02,-1.343233138322830200e-01,1.356926560401916504e-01,1.058872267603874207e-01,2.507448568940162659e-02,6.541966646909713745e-02,2.607794664800167084e-02
-1.493042260408401489e-01,1.681349277496337891e-01,9.302203357219696045e-02,3.304023668169975281e-02,-7.070374488830566406e-02,4.741688817739486694e-02,5.467869923450052738e-04,7.505653053522109985e-02,1.259121000766754150e-01,8.773495256900787354e-02
7.229841500520706177e-02,-1.181984692811965942e-01,3.645382449030876160e-02,-7.749940454959869385e-02,-2.035923302173614502e-02,-3.063688613474369049e-02,4.976828023791313171e-02,-4.903854057192802429e-02,6.220768764615058899e-02,-7.930932939052581787e-02
3.740108758211135864e-02,-1.992902606725692749e-01,7.379537075757980347e-02,-3.195753321051597595e-02,-1.900434494018554688e-01,-1.514417529106140137e-01,-2.399322763085365295e-02,1.361701078712940216e-02,-4.354160279035568237e-03,8.751831203699111938e-02
-1.466233134269714355e-01,-2.497351169586181641e-02,1.319267302751541138e-01,-6.818970292806625366e-02,-4.923105984926223755e-02,6.792002171277999878e-02,-5.951349809765815735e-02,-8.478051982820034027e-03,-1.012535318732261658e-01,-1.623976230621337891e-01
1.299147009849548340e-01,-3.749988973140716553e-02,-1.009342074394226074e-01,-1.217724978923797607e-01,-1.273148320615291595e-02,2.052356749773025513e-01,3.283147513866424561e-02,-1.278291344642639160e-01,5.266186967492103577e-02,1.230934709310531616e-01
-1.360667198896408081e-01,-7.955792546272277832e-02,1.359850466251373291e-01,1.028151158243417740e-02,-1.585273742675781250e-01,-8.813685923814773560e-02,6.119672674685716629e-03,9.940234571695327759e-02,2.028384953737258911e-01,-2.233221568167209625e-02
6.386414915323257446e-02,9.648930281400680542e-02,-2.309722267091274261e-02,1.434340327978134155e-01,-1.213653907179832458e-01,1.168782189488410950e-01,-1.461025476455688477e-01,-6.293138954788446426e-03,-9.485154598951339722e-02,2.168164355680346489e-03
-3.131721168756484985e-02,-1.101757735013961792e-01,-1.056285724043846130e-01,1.020453870296478271e-01,6.841084361076354980e-02,1.163191944360733032e-01,-4.048943519592285156e-02,-1.119063496589660645e-01,-3.035566769540309906e-02,-1.473412103950977325e-02
-2.619188651442527771e-02,-1.959956586360931396e-01,4.121958836913108826e-02,2.701375074684619904e-02,-2.638822607696056366e-02,4.654750600457191467e-02,-4.076107405126094818e-03,-9.217480570077896118e-02,1.593926995992660522e-01,-7.965126633644104004e-02
1.283830553293228149e-01,6.493315100669860840e-02,3.299491852521896362e-02,1.443503238260746002e-02,1.098832562565803528e-01,-1.453552991151809692e-01,-1.292440574616193771e-02,-6.018439307808876038e-02,1.325405389070510864e-01,-9.033102542161941528e-03
9.007410705089569092e-02,1.497781276702880859e-01,2.082683295011520386e-01,1.282633394002914429e-01,8.878576755523681641e-02,1.153089404106140137e-01,1.519405096769332886e-01,7.557927817106246948e-02,-1.060909405350685120e-01,1.434460002928972244e-02
6.898985058069229126e-02,-1.315907686948776245e-01,1.823775470256805420e-01,1.100561115890741348e-02,-2.002829127013683319e-02,-1.783374994993209839e-01,-1.054016649723052979e-01,-1.203371305018663406e-02,8.001650124788284302e-02,1.269446033984422684e-02
-9.695501625537872314e-02,3.486493229866027832e-02,-4.730642959475517273e-02,1.569428890943527222e-01,1.930170655250549316e-01,7.808662205934524536e-02,-1.079121679067611694e-01,4.876540973782539368e-02,-3.066672012209892273e-02,5.768702551722526550e-02
-5.100340023636817932e-02,-1.792336553335189819e-01,-2.592337317764759064e-02,-2.002223581075668335e-02,3.487356007099151611e-02,4.623101279139518738e-02,1.443173289299011230e-01,1.145973280072212219e-01,2.928546816110610962e-02,1.371074747294187546e-02
5.058000236749649048e-02,6.339606642723083496e-02,-1.123979687690734863e-01,9.726873785257339478e-02,-1.028100326657295227e-01,-1.120747253298759460e-01,9.419806301593780518e-02,-1.256096214056015015e-01,-2.177558690309524536e-01,2.905966481193900108e-03
-5.598624795675277710e-02,1.781856566667556763e-01,9.752620756626129150e-02,1.709798872470855713e-01,5.815970525145530701e-02,-2.793971449136734009e-02,-2.747646719217300415e-02,6.287408620119094849e-02,2.412794157862663269e-02,-1.380708664655685425e-01
-6.737273931503295898e-02,-2.074128389358520508e-02,-1.499367598444223404e-02,3.371104598045349121e-02,-1.264719963073730469e-01,7.601929455995559692e-02,-2.482181601226329803e-02,1.631689816713333130e-01,-1.178407669067382812e-02,-4.497155547142028809e-02
2.065419405698776245e-02,-6.604929268360137939e-02,-5.955598875880241394e-02,1.169984787702560425e-01,-1.243788599967956543e-01,-1.297273784875869751e-01,9.760062396526336670e-02,-4.967607557773590088e-02,1.169034317135810852e-01,3.224774450063705444e-02
-1.144325360655784607e-02,6.067781522870063782e-02,-5.296593066304922104e-03,-6.745698302984237671e-02,5.247736722230911255e-02,8.976017683744430542e-02,-3.726227954030036926e-02,-8.183713071048259735e-03,-1.477968040853738785e-02,1.410844624042510986e-01
1.321217268705368042e-01,1.330413818359375000e-01,-1.922669634222984314e-02,1.163721680641174316e-01,4.294874670449644327e-04,4.562981054186820984e-02,-1.524077951908111572e-01,9.319592267274856567e-03,-1.535510718822479248e-01,1.319066137075424194e-01
-1.226552724838256836e-01,-2.251851931214332581e-02,-8.095194934867322445e-04,1.011823788285255432e-01,4.744740575551986694e-02,-1.189647093415260315e-01,8.081584423780441284e-02,6.054171826690435410e-04,5.589153990149497986e-02,1.295377910137176514e-01
-2.071979455649852753e-02,1.535122692584991455e-01,4.453396424651145935e-02,-1.200284212827682495e-01,-1.086666062474250793e-01,-9.561554342508316040e-02,-1.142862215638160706e-01,4.487080127000808716e-02,1.374677419662475586e-01,1.025032103061676025e-01
-8.612309396266937256e-02,3.192657977342605591e-02,2.690236456692218781e-02,2.045230567455291748e-02,-6.397540122270584106e-02,-1.212633624672889709e-01,1.559967994689941406e-01,9.732525795698165894e-02,-9.118954651057720184e-03,-4.112278297543525696e-02
1.061808913946151733e-01,-6.734712421894073486e-02,9.990637749433517456e-02,-1.275759935379028320e-01,1.413664128631353378e-02,-6.304054055362939835e-03,2.963321655988693237e-02,4.755454882979393005e-02,4.151015728712081909e-02,-1.591902971267700195e-02
-1.367377489805221558e-01,1.300210040062665939e-02,7.363142445683479309e-03,6.280746310949325562e-02,-9.274776279926300049e-02,2.228010073304176331e-02,-7.183256000280380249e-02,1.331152766942977905e-01,-8.160874713212251663e-04,1.009503006935119629e-01
3.140291944146156311e-02,-1.445783823728561401e-01,-6.796506047248840332e-02,-1.236257180571556091e-01,-7.512710243463516235e-02,-2.093133330345153809e-02,-5.321896821260452271e-02,-8.246929943561553955e-02,1.047358568757772446e-02,4.931179434061050415e-02
-1.632320731878280640e-01,-1.025631055235862732e-01,-1.438290439546108246e-02,8.566710166633129120e-03,-1.027284413576126099e-01,9.000558406114578247e-02,8.662581443786621094e-02,4.497086629271507263e-03,9.191389381885528564e-02,-1.712756156921386719e-01
-3.973396867513656616e-02,5.019949283450841904e-03,1.850117743015289307e-01,-1.808275729417800903e-01,-1.657819449901580811e-01,9.244050085544586182e-02,-9.121276438236236572e-02,-1.035163295455276966e-03,-7.009927928447723389e-02,3.509288653731346130e-02
1.028766259551048279e-01,6.541812419891357422e-02,-1.595240533351898193e-01,1.072947084903717041e-01,-2.503708936274051666e-02,-8.853188902139663696e-02,-6.608711928129196167e-02,3.818304091691970825e-02,-1.349001228809356689e-01,2.821310423314571381e-02
-3.416264429688453674e-02,1.360178738832473755e-01,1.264837235212326050e-01,-1.691299378871917725e-01,-1.341710239648818970e-01,-9.928368777036666870e-02,2.450889348983764648e-02,1.124112028628587723e-02,-6.147368252277374268e-02,-1.437853556126356125e-02
-1.271914839744567871e-01,-1.569612771272659302e-01,1.356327440589666367e-02,-6.528569757938385010e-02,-1.465263813734054565e-01,-8.972655632533133030e-04,3.721437975764274597e-02,1.541124880313873291e-01,1.229058206081390381e-02,9.214235842227935791e-02
3.772396221756935120e-02,1.451193690299987793e-01,2.115776017308235168e-02,6.969736516475677490e-02,-3.183994442224502563e-02,3.319042176008224487e-02,7.457769662141799927e-02,-1.721767783164978027e-01,-7.305514067411422729e-02,-1.017723307013511658e-01
-1.012309044599533081e-01,1.165920682251453400e-02,-7.766007632017135620e-02,3.550820052623748779e-03,1.026125922799110413e-01,-1.410980820655822754e-01,1.685766130685806274e-02,-1.431767642498016357e-01,6.778746098279953003e-02,1.644935458898544312e-02
-1.381997913122177124e-01,-7.186467945575714111e-02,4.417670145630836487e-02,-2.330280095338821411e-02,-8.261803537607192993e-02,4.538369923830032349e-02,-8.689327538013458252e-02,-2.397644100710749626e-03,-8.672881871461868286e-02,1.655825227499008179e-01
1.850943863391876221e-01,2.037202119827270508e-01,2.441406436264514923e-02,-3.179389238357543945e-02,-3.310424089431762695e-02,1.584415733814239502e-01,4.708794504404067993e-02,-2.218458801507949829e-03,1.154497712850570679e-01,6.817491352558135986e-02
-4.586777836084365845e-02,-4.877772927284240723e-02,1.468364447355270386e-01,-5.825341492891311646e-02,1.223614532500505447e-02,3.666121512651443481e-02,-8.650612086057662964e-02,-9.908501803874969482e-02,-8.894966542720794678e-02,-3.460221737623214722e-02
-8.881646394729614258e-02,7.121729850769042969e-02,-4.485272802412509918e-03,-1.364287640899419785e-02,-7.035848498344421387e-02,1.200587078928947449e-01,1.765148155391216278e-02,8.410091698169708252e-02,-6.006085127592086792e-02,1.254631876945495605e-01
-1.656488031148910522e-01,-1.153118610382080078e-01,-3.800629824399948120e-02,6.404624879360198975e-02,-3.038711473345756531e-02,-5.396384373307228088e-02,-1.353189796209335327e-01,1.479879468679428101e-01,5.757905077189207077e-03,-7.788272108882665634e-03
9.754368662834167480e-02,-1.060156747698783875e-01,3.599062934517860413e-02,1.502567529678344727e-01,1.128725185990333557e-01,2.584964036941528320e-02,-7.995512336492538452e-02,-1.333181560039520264e-01,-1.663947477936744690e-02,-6.843674927949905396e-02
-9.923011064529418945e-02,-8.718585222959518433e-02,1.295742690563201904e-01,2.770306915044784546e-02,-2.847247524186968803e-03,9.041620790958404541e-02,-1.147699281573295593e-01,3.783854097127914429e-02,-1.017387583851814270e-01,9.278566390275955200e-02
1.149102300405502319e-01,-4.160941392183303833e-02,9.428073465824127197e-02,3.973213955760002136e-02,-1.380472332239151001e-01,-3.679567202925682068e-02,-1.036231592297554016e-01,1.352441310882568359e-02,-6.102241575717926025e-03,-6.220944970846176147e-02
2.669154480099678040e-02,-8.190821856260299683e-02,-1.946711391210556030e-01,9.460080415010452271e-02,4.921175539493560791e-02,1.080870404839515686e-01,-4.996512830257415771e-02,2.955814450979232788e-02,-1.594640463590621948e-01,9.475858509540557861e-02
-3.209711238741874695e-02,-1.100607812404632568e-01,-1.135636940598487854e-01,-1.314302440732717514e-03,-7.340490072965621948e-02,7.631848007440567017e-02,-1.387647539377212524e-01,1.071893349289894104e-01,5.450436845421791077e-02,3.936960920691490173e-02
9.879446774721145630e-02,2.098282873630523682e-01,-7.190818339586257935e-02,7.597360759973526001e-02,6.294528394937515259e-02,-8.342822082340717316e-03,-1.477064937353134155e-01,1.209303289651870728e-01,4.429519549012184143e-02,-5.850541871041059494e-03
1.499683111906051636e-01,6.703986227512359619e-02,5.082688853144645691e-02,2.097056806087493896e-02,1.685662269592285156e-01,8.839832246303558350e-02,6.309463828802108765e-02,-1.349891275167465210e-01,-1.365565508604049683e-01,-2.129876799881458282e-02
-1.613909006118774414e-01,-7.994911819696426392e-02,-1.249077990651130676e-01,6.557869166135787964e-02,-9.700328111648559570e-02,3.295601159334182739e-02,1.368881762027740479e-01,-1.286084204912185669e-01,-8.228818327188491821e-02,-3.569179028272628784e-02
8.448836952447891235e-02,9.313181042671203613e-02,2.807255089282989502e-02,3.995625302195549011e-03,3.533195331692695618e-02,7.244117558002471924e-02,1.315437257289886475e-01,1.772674471139907837e-01,7.556511461734771729e-02,-1.179039925336837769e-01
1.337137967348098755e-01,1.041223015636205673e-02,-5.369723215699195862e-02,-1.722233146429061890e-01,3.102816082537174225e-02,6.923067569732666016e-02,2.104576211422681808e-03,-1.544491499662399292e-01,-9.641309827566146851e-02,-1.326941847801208496e-01
4.914131015539169312e-02,-6.350111961364746094e-02,9.884550422430038452e-02,-7.911261916160583496e-02,-4.537180438637733459e-02,1.456937640905380249e-01,-2.544289641082286835e-02,5.437977612018585205e-02,1.601145714521408081e-01,1.535588502883911133e-02
-4.074867320014163852e-06,-3.413829579949378967e-02,3.467550128698348999e-02,8.557265624403953552e-03,-6.244818866252899170e-02,-5.831720307469367981e-02,1.524278074502944946e-01,6.360540539026260376e-02,5.836086720228195190e-02,3.613403299823403358e-03
-3.092505037784576416e-03,5.600904300808906555e-02,2.052652090787887573e-02,-6.454146653413772583e-02,-2.727092429995536804e-02,1.182913109660148621e-01,7.456503808498382568e-02,-9.459702670574188232e-02,8.248168975114822388e-02,1.619255840778350830e-01
-1.223991289734840393e-01,8.950228244066238403e-02,-8.097930252552032471e-02,-5.935022607445716858e-02,-6.279204785823822021e-02,1.696334406733512878e-02,4.247850552201271057e-02,3.427316620945930481e-02,-8.087605983018875122e-02,6.876805424690246582e-02
1.034250482916831970e-02,1.573007553815841675e-01,-1.001300383359193802e-02,1.624050289392471313e-01,-1.919963955879211426e-02,-3.483291715383529663e-02,-1.391968429088592529e-01,-1.278108954429626465e-01,6.033793464303016663e-02,-5.039516091346740723e-02
2.925626561045646667e-02,-1.664206236600875854e-01,-7.265455275774002075e-02,-4.053825139999389648e-02,1.012878343462944031e-01,1.585958749055862427e-01,2.983063645660877228e-02,5.093589052557945251e-02,6.862227618694305420e-02,-1.201605424284934998e-01
-1.226510182023048401e-01,-1.188094764947891235e-01,-2.465308830142021179e-02,-6.018760427832603455e-02,1.715692691504955292e-02,7.984995841979980469e-02,-1.077107712626457214e-01,-9.698761254549026489e-02,-6.828930228948593140e-02,-6.463240832090377808e-03
1.153423860669136047e-01,6.602243520319461823e-03,8.888391405344009399e-02,-3.325826674699783325e-02,7.834514975547790527e-02,-3.885311633348464966e-02,3.803911805152893066e-02,-6.480779498815536499e-02,-7.680496573448181152e-02,-8.819068968296051025e-02
5.747437104582786560e-02,1.942411661148071289e-01,1.247426792979240417e-01,1.200061738491058350e-01,-1.662151515483856201e-01,-1.416390240192413330e-01,4.936501383781433105e-02,4.025560989975929260e-02,-1.874603331089019775e-01,-9.021103382110595703e-02
4.403382912278175354e-02,1.729972660541534424e-01,8.447919040918350220e-02,1.271708607673645020e-01,9.897141903638839722e-02,8.504215627908706665e-02,-1.463975906372070312e-01,-7.704684883356094360e-02,5.324240028858184814e-02,6.282208859920501709e-02
-1.771655166521668434e-03,-5.184502899646759033e-02,-3.265033662319183350e-02,4.124078527092933655e-02,9.380281902849674225e-03,-2.846883051097393036e-02,-1.084478795528411865e-01,6.630227714776992798e-02,6.194473057985305786e-02,-1.311230063438415527e-01
9.320508688688278198e-02,1.621793657541275024e-01,-9.113156050443649292e-02,-8.166670799255371094e-02,2.203081361949443817e-02,8.118962496519088745e-02,7.224492728710174561e-02,-9.350367635488510132e-02,1.587826386094093323e-02,5.044282879680395126e-03
-1.712740748189389706e-03,-5.714929848909378052e-02,-1.311641037464141846e-01,1.361346691846847534e-01,-9.990626946091651917e-03,-2.523059723898768425e-03,9.622678160667419434e-02,4.285689070820808411e-02,2.998090907931327820e-02,-7.341732084751129150e-02
1.382686197757720947e-01,1.380256265401840210e-01,-1.583210676908493042e-01,1.214703638106584549e-02,9.328424930572509766e-02,1.036939918994903564e-01,-3.099466301500797272e-02,1.000910401344299316e-01,-1.752128824591636658e-02,-6.924284249544143677e-02
-1.236961260437965393e-01,-1.378381997346878052e-01,-1.983799785375595093e-02,9.514757432043552399e-03,5.165227502584457397e-02,4.509476199746131897e-02,1.780543848872184753e-02,9.082688391208648682e-02,-9.837865084409713745e-02,-2.191617339849472046e-02
1.286720186471939087e-01,1.598270982503890991e-01,1.755126193165779114e-02,8.621737360954284668e-02,7.113926112651824951e-02,-5.209887027740478516e-02,-9.834738075733184814e-02,-1.815798282623291016e-01,-5.664894357323646545e-02,-1.011733338236808777e-01
-1.898361742496490479e-01,-1.545470952987670898e-01,-1.788496375083923340e-01,-9.112318605184555054e-02,-3.134511783719062805e-02,9.740222245454788208e-02,-7.480875123292207718e-03,-7.229388225823640823e-03,-2.167703509330749512e-01,4.124455153942108154e-02
-2.253783307969570160e-02,8.876541256904602051e-02,-1.022004783153533936e-01,8.668158203363418579e-02,1.001872308552265167e-02,4.958174005150794983e-02,-1.013349518179893494e-01,9.941698610782623291e-02,1.299913078546524048e-01,-3.101607412099838257e-02
1.047540083527565002e-02,-1.708229333162307739e-01,-3.718959540128707886e-02,1.246968507766723633e-01,1.341570019721984863e-01,1.528018116950988770e-01,1.439690738916397095e-01,-1.294683814048767090e-01,3.620741888880729675e-02,-7.899568416178226471e-03
3.025790303945541382e-02,1.013437509536743164e-01,5.449041724205017090e-03,2.284023538231849670e-02,-6.689792871475219727e-02,7.631244510412216187e-02,-1.491984874010086060e-01,-1.067465543746948242e-01,8.589836210012435913e-02,9.421002864837646484e-02
4.152086377143859863e-02,1.445477157831192017e-01,3.572430461645126343e-02,9.677674621343612671e-03,6.787458062171936035e-02,5.301867425441741943e-02,1.791443675756454468e-02,7.081031054258346558e-02,-4.130312055349349976e-02,-7.048641890287399292e-02
-7.797742635011672974e-02,1.660171002149581909e-01,-3.113089129328727722e-02,3.192154108546674252e-04,-1.864051818847656250e-02,1.789000332355499268e-01,7.864413410425186157e-02,8.286012709140777588e-02,1.457582563161849976e-01,1.339009851217269897e-01
1.099283918738365173e-01,-3.059478849172592163e-02,4.646322131156921387e-02,-1.195874810218811035e-01,1.477224081754684448e-01,-9.434845298528671265e-03,1.052057370543479919e-01,3.859132155776023865e-02,-1.269991695880889893e-01,-1.654445230960845947e-01
-1.209387257695198059e-01,1.220535710453987122e-01,-1.168282851576805115e-01,4.869483038783073425e-02,-1.431863307952880859e-01,-1.257958263158798218e-01,-9.023214131593704224e-02,1.728968620300292969e-01,-9.936612099409103394e-02,-1.621871255338191986e-02
-2.436171472072601318e-02,-1.632325202226638794e-01,1.155273094773292542e-01,7.136400789022445679e-02,6.334863603115081787e-02,1.156376376748085022e-01,-1.595907658338546753e-02,3.668429702520370483e-02,-1.136675626039505005e-01,-1.793495416641235352e-01
-1.403338462114334106e-01,-1.704370528459548950e-01,5.362566933035850525e-02,1.174682006239891052e-01,-4.422753304243087769e-02,1.473897397518157959e-01,-1.244737580418586731e-01,-1.600457727909088135e-01,-4.439107701182365417e-02,-1.812931336462497711e-02
-5.797899514436721802e-02,1.582721620798110962e-01,1.465430669486522675e-02,5.322534590959548950e-03,8.178845047950744629e-02,-1.210153382271528244e-02,1.482309401035308838e-01,-1.411520391702651978e-01,1.428211331367492676e-01,6.855066120624542236e-02
6.275366991758346558e-02,9.805825352668762207e-02,-1.490757167339324951e-01,-3.005740419030189514e-02,8.294347673654556274e-02,-6.467054784297943115e-02,-1.080506891012191772e-01,4.709453880786895752e-02,3.970814496278762817e-02,-1.503550112247467041e-01
4.554358124732971191e-02,-8.714588731527328491e-02,-5.176418647170066833e-02,-1.469020396471023560e-01,-7.902545481920242310e-02,-4.229564592242240906e-02,-1.153319925069808960e-01,-1.371715068817138672e-01,-7.137108594179153442e-02,-1.035497486591339111e-01
1.468077003955841064e-01,1.566699296236038208e-01,1.622868180274963379e-01,1.679099649190902710e-01,-9.397550672292709351e-02,-1.623916178941726685e-01,-1.874176859855651855e-01,7.078550010919570923e-02,7.859875261783599854e-02,7.299236953258514404e-02
-3.398815169930458069e-02,1.663621366024017334e-01,-1.467071920633316040e-01,1.623284444212913513e-02,-8.561547845602035522e-02,-4.290079325437545776e-02,6.667482107877731323e-02,1.819640845060348511e-01,-4.568694531917572021e-02,-9.653436951339244843e-03
3.994748368859291077e-02,-1.740245372056961060e-01,5.937838554382324219e-02,-1.891717761754989624e-01,-4.209491983056068420e-02,1.098765954375267029e-01,1.553139537572860718e-01,2.505022659897804260e-02,3.009110316634178162e-02,1.400501281023025513e-01
2.466494217514991760e-02,6.778424233198165894e-02,3.396170213818550110e-02,-1.357686817646026611e-01,-2.140223048627376556e-02,-1.305543929338455200e-01,1.476035267114639282e-01,-2.263166382908821106e-02,1.553467065095901489e-01,-1.821461319923400879e-02
-5.064674466848373413e-02,1.459019780158996582e-01,-1.676227897405624390e-01,-7.032724469900131226e-02,1.854438185691833496e-01,3.811417892575263977e-02,-1.763735413551330566e-01,1.035553887486457825e-01,-1.441617012023925781e-01,1.365418285131454468e-01
-1.356206089258193970e-01,2.333448082208633423e-02,1.794071793556213379e-01,1.013869047164916992e-02,1.068702116608619690e-01,-1.516764163970947266e-01,-1.758658587932586670e-01,1.649504154920578003e-01,8.669625222682952881e-02,-9.550805389881134033e-02
3.193896263837814331e-02,1.154426857829093933e-01,-3.426489233970642090e-02,-6.617967784404754639e-02,1.491515338420867920e-01,-9.533265605568885803e-03,-1.312782913446426392e-01,1.221282705664634705e-01,1.306722909212112427e-01,-4.995371401309967041e-02
-1.038488596677780151e-01,6.829634308815002441e-02,-6.395620852708816528e-02,-8.103748410940170288e-02,1.120996773242950439e-01,4.260994866490364075e-02,6.021664664149284363e-02,-7.749649882316589355e-02,7.292820513248443604e-02,9.695739299058914185e-02
-6.253849714994430542e-02,1.151921451091766357e-01,-6.658641993999481201e-02,8.291977643966674805e-02,9.099659323692321777e-02,3.784314915537834167e-02,9.595524519681930542e-02,-1.463966164737939835e-02,3.463333472609519958e-02,-2.395847998559474945e-02
-5.831526219844818115e-02,5.375345423817634583e-02,1.080191358923912048e-01,1.076122745871543884e-01,-3.835876658558845520e-02,-3.585119172930717468e-02,-1.767636160366237164e-03,-5.463372915983200073e-02,-1.538212299346923828e-01,-6.381109356880187988e-02
1.735833734273910522e-01,-9.274992346763610840e-02,2.636282332241535187e-02,1.180390734225511551e-02,-1.482669711112976074e-01,6.049917265772819519e-02,-9.598039835691452026e-02,6.881481967866420746e-03,-2.838218212127685547e-02,-1.482263505458831787e-01
-8.210812509059906006e-02,4.114297032356262207e-02,-1.330121606588363647e-01,-7.379997521638870239e-03,7.718781381845474243e-02,-3.262941539287567139e-02,1.379896551370620728e-01,-1.520738601684570312e-01,-1.882522366940975189e-02,2.467592805624008179e-02
1.885485649108886719e-02,-1.601001247763633728e-02,1.027320325374603271e-01,-8.947404474020004272e-02,1.910525141283869743e-03,3.032451309263706207e-02,-4.793412610888481140e-02,1.021392196416854858e-01,2.381806820631027222e-02,1.247863546013832092e-01
-2.097542025148868561e-02,1.885014623403549194e-01,-1.145331282168626785e-02,-9.642007201910018921e-02,-1.476714462041854858e-01,7.324510067701339722e-02,7.556148618459701538e-02,-4.354463890194892883e-02,1.416047513484954834e-01,6.729918532073497772e-03
-2.835641428828239441e-02,1.568772643804550171e-01,1.231256648898124695e-01,-5.212419852614402771e-02,-6.388213485479354858e-02,1.104911416769027710e-02,5.257087945938110352e-02,-3.920752182602882385e-02,-9.995889663696289062e-02,-8.625189960002899170e-02
-1.202059164643287659e-01,-3.992442414164543152e-02,-4.143165051937103271e-02,-2.173582650721073151e-02,-1.094220429658889771e-01,1.649116538465023041e-02,1.582661420106887817e-01,4.102961346507072449e-02,-5.943398457020521164e-03,-1.347369104623794556e-01
7.875125110149383545e-02,-1.674305200576782227e-01,-7.454931735992431641e-02,-3.533246740698814392e-02,-8.482454717159271240e-02,9.454654902219772339e-02,-5.301222577691078186e-02,-8.162498474121093750e-03,-3.869893401861190796e-02,1.355110853910446167e-01
-7.490161806344985962e-02,1.551963686943054199e-01,7.205261290073394775e-02,3.372309356927871704e-02,1.168310567736625671e-01,-6.330329924821853638e-02,-1.240423247218132019e-01,6.115087773650884628e-03,-7.006324082612991333e-02,-8.907860517501831055e-02
-1.030416786670684814e-01,5.399337410926818848e-02,1.414751540869474411e-02,6.166236009448766708e-03,4.020474478602409363e-02,-3.541460260748863220e-02,-1.370558142662048340e-01,1.113368719816207886e-01,8.027295023202896118e-02,5.263379961252212524e-02
1.220242679119110107e-01,1.809914596378803253e-02,-9.679772891104221344e-03,9.058778733015060425e-02,1.186078414320945740e-01,9.817913174629211426e-02,8.551637828350067139e-02,-1.027278304100036621e-01,-5.910877510905265808e-02,1.604373455047607422e-01
5.574813112616539001e-02,-5.821699276566505432e-02,-1.160845458507537842e-01,-1.931875199079513550e-01,-8.854503184556961060e-02,-1.635032445192337036e-01,-2.076341956853866577e-01,-1.460163760930299759e-02,5.933721736073493958e-02,-1.222759112715721130e-01
-7.006836682558059692e-02,-1.579946875572204590e-01,1.338974833488464355e-01,7.984430342912673950e-02,-1.723773032426834106e-01,-9.620551019906997681e-02,-1.656764447689056396e-01,5.650980770587921143e-02,-2.593724802136421204e-02,-9.350026026368141174e-03
1.494347583502531052e-02,-7.647215574979782104e-02,-4.760422743856906891e-03,-4.757103696465492249e-02,1.407579630613327026e-01,-1.565512269735336304e-02,-1.520656943321228027e-01,-1.160465255379676819e-01,-1.877567172050476074e-01,7.266073673963546753e-02
1.404511630535125732e-01,1.032937467098236084e-01,-1.796719133853912354e-01,-1.921564713120460510e-02,6.006276234984397888e-03,-1.084216963499784470e-02,-2.700685337185859680e-02,-8.933602273464202881e-02,6.080635637044906616e-02,-3.452064841985702515e-02
-1.133486106991767883e-01,-1.627081260085105896e-02,1.538539379835128784e-01,-3.742336854338645935e-02,5.629266612231731415e-03,-1.327133476734161377e-01,-1.882774680852890015e-01,1.874827444553375244e-01,-6.711240857839584351e-02,-1.095847114920616150e-01
7.902254909276962280e-02,-1.790482997894287109e-01,2.557497099041938782e-02,1.272214353084564209e-01,-1.163346394896507263e-01,-1.135364770889282227e-01,2.004631012678146362e-01,8.852424100041389465e-03,7.602415978908538818e-02,-8.849953114986419678e-02
-6.185258179903030396e-02,-1.161334887146949768e-01,4.906814917922019958e-02,1.161298453807830811e-01,-1.478234380483627319e-01,8.248526602983474731e-02,-5.818845331668853760e-02,1.214721202850341797e-01,1.770436763763427734e-02,-1.690142154693603516e-01
-1.006255149841308594e-01,4.916141927242279053e-02,9.283185750246047974e-02,3.271554037928581238e-02,-1.425768435001373291e-02,3.512538596987724304e-02,-8.604552596807479858e-02,1.971142133697867393e-03,4.341833293437957764e-02,2.007839642465114594e-02
-1.390543878078460693e-01,1.329265236854553223e-01,-5.598358809947967529e-02,-4.250702261924743652e-02,-8.940164744853973389e-02,-4.306420311331748962e-02,-2.735142596065998077e-02,-1.288727521896362305e-01,1.429396122694015503e-01,6.393714994192123413e-02
-9.588018804788589478e-02,-1.492007672786712646e-01,8.487893640995025635e-02,-1.154337152838706970e-01,-1.201999858021736145e-01,5.112996324896812439e-02,-3.742810711264610291e-02,-1.082706972956657410e-01,9.252605587244033813e-02,-4.731808975338935852e-02
-4.540099296718835831e-03,-1.176904141902923584e-01,-2.473061531782150269e-02,-9.597675502300262451e-02,-1.081856563687324524e-01,5.280529335141181946e-02,-1.417916417121887207e-01,-5.421715602278709412e-02,5.078372731804847717e-02,-4.526995867490768433e-02
-1.454230048693716526e-03,8.716610074043273926e-02,-3.416258096694946289e-02,-9.191474318504333496e-02,1.323922872543334961e-01,1.460092421621084213e-02,5.285388324409723282e-03,-7.211931794881820679e-02,-7.564523071050643921e-02,-3.918425738811492920e-02
1.369586735963821411e-01,2.750303223729133606e-02,-7.567714154720306396e-02,-4.870170669164508581e-04,-9.066393226385116577e-02,-7.929483056068420410e-02,-6.030772347003221512e-03,1.158398762345314026e-01,1.224284693598747253e-01,-9.489150345325469971e-02
1.598875820636749268e-01,1.454199999570846558e-01,-1.455319374799728394e-01,1.484022289514541626e-01,-4.452282935380935669e-02,-4.550223052501678467e-02,4.901777207851409912e-02,-9.442915022373199463e-02,-1.214097440242767334e-02,1.312304884195327759e-01
1.169881522655487061e-01,-1.303319931030273438e-01,9.705840796232223511e-02,-8.648219704627990723e-02,1.235055476427078247e-01,3.953940793871879578e-02,1.393457055091857910e-01,1.284779906272888184e-01,8.128689229488372803e-02,-3.700102120637893677e-02
3.440609725657850504e-05,-1.129502579569816589e-01,-6.864611059427261353e-02,9.378177672624588013e-02,-7.366452366113662720e-02,-1.295821182429790497e-02,6.698843836784362793e-02,3.387077013030648232e-03,-1.295755654573440552e-01,-2.396825700998306274e-02
1.494777053594589233e-01,1.581110507249832153e-01,1.525153219699859619e-01,1.089512258768081665e-01,-4.539338871836662292e-02,1.790374517440795898e-01,2.739681676030158997e-02,1.450231671333312988e-01,-3.749160096049308777e-02,1.180231571197509766e-01
-1.353760063648223877e-01,-1.618736982345581055e-01,-9.759225696325302124e-02,1.531438343226909637e-02,-1.359289884567260742e-01,7.959733903408050537e-02,-1.337616704404354095e-02,1.335757076740264893e-01,1.308665126562118530e-01,-1.350413262844085693e-01
-1.643784493207931519e-01,-1.918746978044509888e-01,-1.023385301232337952e-01,-4.265266284346580505e-02,1.540177017450332642e-01,-1.243158206343650818e-01,-1.323711872100830078e-01,-1.606079488992691040e-01,8.109850436449050903e-02,-1.973017752170562744e-01
-1.013231426477432251e-01,9.152305126190185547e-02,6.537494063377380371e-02,-1.647373288869857788e-01,1.250528097152709961e-01,-1.617234051227569580e-01,8.597074449062347412e-02,6.078566610813140869e-02,1.728066354990005493e-01,9.096720814704895020e-02
-8.192109316587448120e-02,2.611096017062664032e-02,7.285469025373458862e-02,-3.759018704295158386e-02,6.104294676333665848e-03,-5.118287354707717896e-02,-1.273861229419708252e-01,6.068597361445426941e-02,7.595366332679986954e-03,-1.432410776615142822e-01
1.768546700477600098e-01,-1.651925295591354370e-01,-4.768121242523193359e-02,-1.003402471542358398e-01,1.469282954931259155e-01,-1.121138483285903931e-01,7.278988510370254517e-02,-1.123343855142593384e-01,-1.577631831169128418e-01,-1.381367743015289307e-01
1.744255274534225464e-01,-1.841143518686294556e-01,9.519369900226593018e-02,3.246514126658439636e-02,1.023401767015457153e-01,1.194744333624839783e-01,-8.523314446210861206e-02,-7.507378607988357544e-02,-1.202396233566105366e-03,-2.496343478560447693e-02
-8.844249695539474487e-02,-8.796805143356323242e-02,1.706326156854629517e-01,-1.289974246174097061e-02,3.682297468185424805e-02,-9.816407412290573120e-02,1.385838687419891357e-01,-7.386943697929382324e-02,1.139979660511016846e-01,-6.373920291662216187e-02
-1.236749738454818726e-01,-1.441216915845870972e-01,-1.328203082084655762e-01,8.754985034465789795e-02,-3.512500226497650146e-02,-7.906124740839004517e-02,-1.289966553449630737e-01,-1.856704205274581909e-01,1.414086297154426575e-02,-4.543062672019004822e-02
-1.895067989826202393e-01,4.160597920417785645e-02,5.484494939446449280e-02,-8.936057239770889282e-02,1.329465508460998535e-01,1.493485718965530396e-01,-1.093133538961410522e-01,-1.996613107621669769e-02,2.870253287255764008e-02,1.806798279285430908e-01
5.614189803600311279e-02,-1.176201626658439636e-01,8.209171146154403687e-02,1.099150069057941437e-02,6.119957193732261658e-02,1.423605978488922119e-01,2.422894816845655441e-03,-1.186137869954109192e-01,1.633777767419815063e-01,-1.343471556901931763e-01
1.015628427267074585e-01,1.307795941829681396e-01,-5.712113901972770691e-02,2.758382074534893036e-02,1.255130618810653687e-01,-5.440189316868782043e-02,-4.208615422248840332e-02,4.850938171148300171e-02,-1.894524097442626953e-01,-8.053515106439590454e-02
1.545677240937948227e-02,-1.239027176052331924e-02,1.612290889024734497e-01,3.422402217984199524e-02,-1.093899756669998169e-01,-3.736751154065132141e-02,-3.657966107130050659e-02,-1.171120330691337585e-01,8.581402152776718140e-02,-2.115136384963989258e-02
-1.258267313241958618e-01,-8.455754071474075317e-02,-7.530172914266586304e-02,-7.303217053413391113e-02,-1.292159855365753174e-01,6.764100492000579834e-02,-1.986875236034393311e-01,7.625950872898101807e-02,2.436948008835315704e-03,1.055081114172935486e-01
-1.139229685068130493e-01,-1.088698804378509521e-01,-9.326114505529403687e-02,-2.099822908639907837e-01,1.206741034984588623e-01,9.939410537481307983e-02,-1.178978756070137024e-01,-9.667001664638519287e-02,-8.291035890579223633e-02,-3.312258049845695496e-02
3.619636967778205872e-02,-7.691710442304611206e-02,4.482050985097885132e-02,-1.033453643321990967e-01,-3.586824238300323486e-02,-6.146163493394851685e-02,5.930219218134880066e-02,-6.942428648471832275e-02,1.860160753130912781e-02,-1.001281961798667908e-01
9.166197478771209717e-02,7.700733095407485962e-02,-1.671273820102214813e-02,-6.027133390307426453e-02,9.972910583019256592e-02,-5.514209717512130737e-02,4.705962724983692169e-03,-4.622409492731094360e-02,-6.335681304335594177e-03,6.460719555616378784e-02
3.451734036207199097e-02,1.026744171977043152e-01,-7.543423771858215332e-02,-6.110590696334838867e-02,-1.166617274284362793e-01,7.000233232975006104e-02,-1.576265394687652588e-01,-1.388471871614456177e-01,4.116611555218696594e-02,9.006182663142681122e-03
-1.293995082378387451e-01,-5.258816480636596680e-02,-7.416637241840362549e-02,1.186209321022033691e-01,-1.582454293966293335e-01,-1.693792641162872314e-01,9.678518027067184448e-02,1.816440373659133911e-01,-3.549703583121299744e-02,4.612434282898902893e-02
-5.341482535004615784e-02,1.467291712760925293e-01,-5.697350017726421356e-03,-1.108633503317832947e-01,1.211921218782663345e-02,-1.051425337791442871e-01,9.209036082029342651e-02,8.180881850421428680e-03,-7.423821836709976196e-02,1.169050261378288269e-01
-6.148366723209619522e-03,1.764241009950637817e-01,-3.695237636566162109e-02,4.878878220915794373e-02,-8.752552419900894165e-02,-2.023623883724212646e-01,8.901553601026535034e-02,5.240955948829650879e-02,-5.499046295881271362e-03,-1.120462864637374878e-01
-2.587586455047130585e-02,6.096415221691131592e-02,-1.228267028927803040e-01,8.802657574415206909e-02,2.182954922318458557e-02,-1.994620263576507568e-01,9.214656800031661987e-02,-8.347046375274658203e-02,-1.292907595634460449e-01,9.133111685514450073e-02
-1.041214391589164734e-01,-7.708553224802017212e-02,7.774764299392700195e-02,1.150812730193138123e-01,-6.405417341738939285e-03,-5.041713267564773560e-02,-1.249236539006233215e-01,7.605420053005218506e-02,1.011998429894447327e-01,7.662303000688552856e-02
-8.656891435384750366e-02,-8.354106545448303223e-02,-1.123589184135198593e-02,9.761021286249160767e-02,4.414287582039833069e-02,-1.090544313192367554e-01,1.256678551435470581e-01,-9.258854389190673828e-02,-2.114666625857353210e-02,-5.884418729692697525e-03
1.317323148250579834e-01,5.975606292486190796e-02,6.001644954085350037e-02,-8.965171128511428833e-02,1.571306586265563965e-02,-5.783820152282714844e-02,-3.979945927858352661e-02,-5.089443549513816833e-02,-8.501362055540084839e-02,3.435518592596054077e-02
-1.822947710752487183e-02,-3.253923356533050537e-02,-9.187649935483932495e-02,5.275771394371986389e-02,2.491248585283756256e-02,-1.463454812765121460e-01,3.491879254579544067e-02,-6.416578590869903564e-02,-2.544023795053362846e-03,-9.130217134952545166e-02
4.665853455662727356e-02,-1.457453370094299316e-01,8.776118606328964233e-02,1.420394182205200195e-01,7.681728899478912354e-02,-1.565010994672775269e-01,-1.034834086894989014e-01,-1.392847299575805664e-02,-1.380829215049743652e-01,1.218158453702926636e-01
1.235807985067367554e-01,-4.991344735026359558e-02,-1.492167916148900986e-02,1.217733100056648254e-01,-2.280767820775508881e-02,9.531905502080917358e-02,8.858068287372589111e-02,8.475221693515777588e-02,2.953391522169113159e-02,2.328446321189403534e-02
-1.246650218963623047e-01,2.538587711751461029e-02,1.386328488588333130e-01,1.235544774681329727e-02,-9.130714088678359985e-02,6.202755495905876160e-02,-1.813202649354934692e-01,7.853779196739196777e-02,1.236801594495773315e-02,1.481421589851379395e-01
-1.401080191135406494e-01,5.324575304985046387e-02,-1.572118140757083893e-02,6.808081269264221191e-02,-5.061964318156242371e-02,6.598427891731262207e-02,-7.250491529703140259e-02,-1.409358065575361252e-02,9.722235053777694702e-02,1.134314909577369690e-01
-4.761844873428344727e-02,1.736560463905334473e-01,-8.905010670423507690e-02,8.837145566940307617e-02,-1.305399090051651001e-01,9.792203456163406372e-02,-3.809906914830207825e-02,7.438428699970245361e-02,-6.667834520339965820e-02,-1.971828639507293701e-01
-1.162362634204328060e-03,1.236960589885711670e-01,1.567264199256896973e-01,-9.703093767166137695e-02,2.231275476515293121e-02,-1.804123669862747192e-01,-9.742024540901184082e-02,5.277383700013160706e-02,5.095714237540960312e-03,-9.063141793012619019e-02
9.097311645746231079e-02,1.747379302978515625e-01,2.368575520813465118e-02,-1.548036560416221619e-02,-5.283743143081665039e-02,6.792130321264266968e-02,-2.039492316544055939e-02,6.302841007709503174e-02,5.486679449677467346e-02,-1.308762133121490479e-01
-8.342129737138748169e-02,-1.719249039888381958e-01,9.337063878774642944e-02,1.700738966464996338e-01,9.531147032976150513e-02,-9.111566841602325439e-02,1.728424131870269775e-01,-8.765371143817901611e-02,1.260813921689987183e-01,6.242880597710609436e-02
-1.545269340276718140e-01,-2.412495575845241547e-02,4.236738756299018860e-02,1.463184803724288940e-01,-1.059732586145401001e-01,-7.253441214561462402e-02,3.091068565845489502e-02,3.256859257817268372e-02,-7.760909944772720337e-02,-1.325796097517013550e-01
-1.489215046167373657e-01,-1.290247589349746704e-01,9.073261916637420654e-02,1.348906159400939941e-01,-9.474521875381469727e-02,1.720650643110275269e-01,1.662108004093170166e-01,1.589339524507522583e-01,1.551001425832509995e-02,8.641266077756881714e-02
-8.111283928155899048e-02,1.055510193109512329e-01,7.293029129505157471e-02,9.048023074865341187e-02,-6.552180647850036621e-02,-1.247699931263923645e-01,-7.746706157922744751e-02,2.340418286621570587e-02,-1.324971765279769897e-01,-7.272452581673860550e-03
-2.715907059609889984e-02,-1.137573570013046265e-01,-8.935820311307907104e-02,9.448516368865966797e-02,7.963703013956546783e-03,-4.139821976423263550e-02,1.090688854455947876e-01,-7.347862236201763153e-03,2.423530071973800659e-02,6.073612347245216370e-02
1.282519251108169556e-01,-6.747105717658996582e-02,-1.098779961466789246e-01,-9.168396145105361938e-02,-9.230660647153854370e-02,4.215119779109954834e-02,9.903068840503692627e-02,1.322263330221176147e-01,-2.254004590213298798e-02,-5.292713269591331482e-02
-2.362681925296783447e-02,2.719639101997017860e-03,6.243188306689262390e-02,-3.181378170847892761e-02,4.995469003915786743e-02,-1.380299329757690430e-01,3.254481591284275055e-03,1.057002246379852295e-01,-3.979642689228057861e-02,-6.541999429464340210e-02
-2.771107293665409088e-02,9.031182527542114258e-02,-4.347769170999526978e-02,-1.477583944797515869e-01,1.383284479379653931e-01,-5.045448895543813705e-03,5.321367084980010986e-02,-1.529729217290878296e-01,-1.019610613584518433e-01,1.929569803178310394e-02
-9.508185088634490967e-02,9.824842214584350586e-03,7.836512476205825806e-02,-1.021958515048027039e-01,-8.770065754652023315e-02,-3.535436466336250305e-02,-9.814003109931945801e-02,5.029235407710075378e-02,-1.092847958207130432e-01,2.506638877093791962e-02
1.169389858841896057e-01,-5.748377740383148193e-02,1.161681339144706726e-01,-3.755978122353553772e-02,1.598874032497406006e-01,6.830006837844848633e-02,-1.687987297773361206e-01,-4.149471595883369446e-02,-1.724216043949127197e-01,-1.574077159166336060e-01
6.955932080745697021e-02,-9.464284405112266541e-03,-2.327331714332103729e-02,-1.462135557085275650e-02,1.234425604343414307e-01,1.069821417331695557e-01,1.360280662775039673e-01,1.222990602254867554e-01,9.182468801736831665e-02,2.772284857928752899e-02
-7.291781157255172729e-02,-1.384418606758117676e-01,5.315645411610603333e-02,6.905510276556015015e-02,-1.163663566112518311e-01,-5.825933814048767090e-02,5.096535757184028625e-02,3.163719922304153442e-02,3.587073087692260742e-02,2.459889044985175133e-03
8.422174304723739624e-02,-9.403254091739654541e-02,-1.554521173238754272e-02,-1.336242705583572388e-01,7.436979562044143677e-02,-7.111769914627075195e-02,1.531941592693328857e-01,-4.377067461609840393e-02,4.002721235156059265e-02,1.334668993949890137e-01
